PC-01 PC-02 PC-03 PC-04 PC-05 PC-06 PC-07 PC-08 PC-09 PC-10 PC-11 PC-12 PC-13 PC-14 PC-15 PC-16 PC-17 PC-18 PC-19 PC-20 PC-21 PC-22 PC-23 PC-24 PC-25 PC-26 PC-27 PC-28 PC-29 PC-30 PC-31 PC-32 PC-33 PC-34 PC-35 PC-36 PC-37 PC-38 PC-39 PC-40 PC-41 PC-42 PC-43 PC-44 PC-45 PC-46 PC-47 PC-48 PC-49 PC-50 PC-51 PC-52 PC-53 PC-54 PC-55 PC-56 PC-57 PC-58 PC-59 PC-60 PC-61 PC-62 PC-63 PC-64 PC-65 PC-66 PC-67 PC-68 PC-69 PC-70 PC-71 PC-72 PC-73 PC-74 PC-75 PC-76 PC-77 PC-78 PC-79 PC-80 PC-81 PC-82 PC-83 PC-84 PC-85 PC-86 PC-87 PC-88 PC-89 PC-90 PC-91 PC-92 PC-93 PC-94 PC-95 PC-96 PC-97 PC-98 PC-99 PC-100 PC-101 PC-102 PC-103 PC-104 PC-105 PC-106 PC-107 PC-108 PC-109 PC-110 PC-111 PC-112 PC-113 PC-114
DPCh_plate1_A01_S1 -0.0975044141514932 -0.00267952775647357 -0.091533298347834 -0.184768025408447 -0.0229246539009439 0.110919756003467 -0.00821734929298797 -0.0210961408734514 0.0158286324919109 -0.00239858464845943 -0.0895360812440698 0.127963591496295 -0.0850802447617489 -0.0188084544072311 -0.0653523358501149 -0.16446966209302 0.131011907848886 -0.174121566017124 -0.164577621758713 -0.0588608886312229 0.09233786203291 -0.0557675313630827 -0.0421001559791842 -0.00367145952351037 0.0217854246184988 0.0227243638125996 0.137966104196006 -0.158359197736568 -0.00817795743423899 -0.131348208899411 -0.077942979600591 0.287245528896834 -0.117199757809455 0.0750506152649401 -0.017792664924442 -0.162274587083281 0.150082355336154 -0.0310689920728666 -0.0132788461521449 -0.157624027823356 -0.151209613698404 0.0626561879076095 0.354244164005502 -0.0332170592668746 0.0711446974956554 0.114736055397779 -0.0596686387974575 -0.0493918023777048 0.178229197272248 -0.107087557042184 0.0739903899021246 0.252807025713788 0.01325782152772 -0.049075199949913 0.0337992264590699 0.200378881997445 0.0594033501689678 0.0438125743170059 0.275976230398268 0.087077174254539 0.107994944325546 -0.0904425723698217 -0.019302800260498 -0.00814048349131367 0.139866755598855 0.0271778710399736 0.0917106070619507 0.0248507693782194 -0.012381571423788 0.0425560243955026 0.0218491758329718 -0.0211628532103366 -0.0308662543702598 -0.0253083166439167 0.0790825571546606 0.035809110386531 0.0281529242964737 0.0725924316731571 0.0772558643447336 0.0456850311189074 0.0609868268775385 -0.025696956571143 -0.0150467408929549 0.0403342699430573 0.0419144976561556 -0.0643351351726954 -0.00919420451831301 -0.0780104941022638 0.0292228269921064 0.01369973919355 -0.0367289870182266 0.0292519469178494 0.00856289554689098 -0.0205994575101989 -0.0378813668514003 -0.0115637572480043 0.0304755730177399 0.0144301761010689 0.00429230117691372 0.00128960533190413 0.013014000145834 0.00957287215807218 -0.015437569047265 -0.00335318824909491 0.0222056695232365 -0.0116302657660843 -0.00755496687082185 0.00657626801679089 0.000521639592145915 -0.00341586637413528 0.00875719786539511 0.00474042586698527 -0.00216958097325717 -0.0943479747168777
DPCh_plate1_A02_S2 -0.0912638501485131 0.00512990766926929 -0.133059740013985 -0.130789502378734 -0.00768335373417183 0.130886405951498 0.0398826779837162 -0.0616542815535064 -0.0928048882833303 -0.225543574678222 0.0907258920775977 0.123673074602554 0.0586483008939683 -0.275832604010175 0.400012403247545 -0.133972674887728 -0.143829116889271 0.141573193686284 -0.0213232760089349 0.157841944367359 0.0237619050656879 0.319360494586332 0.290686536263224 0.0772030283927342 -0.0708301916275653 0.0671849325143441 -0.197554766646776 -0.0462671618129042 -0.0367717590088955 0.103701767427738 -0.0370288346116603 0.178704582324319 0.278155752527859 0.199703796205864 -0.0790374152804824 -0.0720948358948258 -0.082643735670916 0.0165090261110164 -0.105776429804505 -0.054973652918576 -0.0331712710833968 -0.0101738784741258 -0.0812546241877442 -0.0292865904905034 0.0206223465594083 0.00590514094181385 0.0865991157719162 -0.0608343459080152 0.0237137152860798 0.00516501957380163 -0.0198147406597088 0.0415388903259305 0.0577263824400827 -0.00899297294441057 0.047665726493115 0.033399907038372 -0.0100483491812214 0.0296443663083995 -0.00908693210991625 -0.0148382132950009 0.00565771569418998 0.0278702899589477 -0.0182446111417472 -0.0291834607190898 0.00533457523781819 0.00924934853545756 -0.00676666224909531 -0.00950498440241147 0.0380684741619142 0.0755067342991121 -0.0298065185529669 0.0361009779492768 -0.0402119134696473 -0.011596496968497 -0.0354713973610326 -8.23884880142914e-05 0.00504250689196438 0.043144394086948 -0.0778671704385065 -0.00142400719228422 -0.00655704276491429 0.0728803452498243 -0.0417234815155469 0.0264345914059965 -0.093799467431366 -0.0147430474366091 0.0446466287539314 -0.0416030029602875 -0.013543824332115 0.0333289348211552 -0.0134016650656195 -0.026289700015217 0.0079364681304712 -0.0104318909125228 -0.0206963707144642 0.00378206661814923 -0.0233718245453264 -0.0191580613737349 -0.0170542255969709 -0.0243253435569018 -0.0049773058902445 0.0135685893900597 -0.00781570812557571 -0.0145052943460867 0.0171637372149787 0.0012593276804342 -0.00284094908526211 0.00233935598336071 -0.00778691575593886 0.0103412098745541 -0.00553415455453755 -0.00705736680223427 -0.00100260821547881 -0.093354310122788
DPCh_plate1_A05_S5 0.0824010549924977 0.085615919681933 0.0242121834288282 -0.034028657717287 0.0661424122184746 0.00803624803928999 0.0401265306658272 0.0644908190707542 0.00221092946311296 0.0247763374149553 -0.00111558130239039 0.0188669573399744 0.0114780050781032 -0.0394414151632373 -0.0170524492673173 0.0598520458802553 -0.0520491956305006 -0.0717433357199986 0.0399419198989528 0.0186576255422259 0.0145216387714944 -0.0123084680264134 -0.128732440643831 0.119248996798098 -0.0820232684392137 -0.0388857853532428 -0.0666005724765598 0.0850440996439247 0.0189477388848081 -0.0186665687729461 -0.103455816409436 -0.0277210922243466 -0.034931303815938 -0.0170878401172161 0.00463415395766788 0.0820319062885852 0.0623351235450638 0.0761486740483711 0.0805151198990307 -0.121791926644337 0.029257373308545 0.0241990125089048 -0.107262207775718 -0.0635455240583058 -0.0540581797639839 -0.236755176144753 0.377244525192256 -0.333923387891978 0.186045785847664 -0.0196697643358028 0.225415867812829 -0.0178455447948742 0.0475238993197167 0.0404400190366765 -0.0041503532667741 -0.00506207600654348 0.262369036249831 0.2495997763708 -0.10865954469304 0.190236471512302 0.0287524538244453 0.106569407377182 0.115154903368616 -0.0262375893696346 0.243418736290014 -0.0821931493369547 0.0362161326237604 0.00693399253273402 -0.128368728548301 -0.107072316633359 -0.0517461564244817 0.0229206337798253 -0.167983089341196 0.00970711498820174 0.0874794151300437 -0.0325336827921715 -0.0676409994961168 -0.0506965647913062 0.0494942497668655 0.0614524922361517 -0.0456696003093746 -0.0268315695611112 0.0605839027559197 -0.044980819914278 -0.0928027972312991 0.0380707258196854 -0.0859269420029765 -0.0185078653902431 -0.014209648629299 0.0444434358514554 -0.0987131591579608 -0.0691811560862442 0.0106093596498418 0.0247489689584609 -0.00283247190020947 0.0236380205470023 0.00383065654744253 0.0461527491571644 -0.0398875140516636 0.0676735972072051 0.00147905915773277 -0.0829510297652732 0.00234838351573433 -0.0773633730520487 -0.00912808672061755 0.0405399215296918 -0.00447778278618105 -0.0482113322782583 0.00530913064841471 -0.00226114095033538 0.024224825631865 -0.0327638161755527 0.0341671999059372 -0.0930384936560427
DPCh_plate1_A06_S6 0.0805455588529734 0.108675386047842 -0.0556072686185066 -0.000825639744921851 0.130895928459778 -0.068301616336391 -0.00805134803847061 0.159146608068056 -0.0659304398394108 0.00192076119453748 0.0498044606663172 -0.137491039269967 -0.0998340920264108 0.186873134437729 0.00994077245493911 -0.42520042799836 0.421301842121982 0.396130429458922 0.0406502345103196 -0.0837707583594617 0.160514090371631 0.143646375346448 0.042477929873685 -0.108496748649055 0.107574067177396 0.0371560142035954 -0.0774448742649239 0.125714104547033 0.223589751262039 -0.028028717607522 0.00681167781580765 -0.0348055924701926 -0.138412939021783 0.0402087661684035 -0.0731669160403058 -0.0704823994049934 -0.04060175406746 0.133762774238842 0.0761227571904828 -0.13684851732421 0.0509283794838826 0.181647485541822 -0.0723699283197585 -0.0697185867456859 -0.0134503561100086 -0.00154988502353215 -0.040305429701466 -0.00526434138077274 -0.0201110798535565 0.00820953069674718 0.0812884049782729 0.0378515276427637 -0.00688089929331042 0.0439966342950591 0.00527232618684387 -0.0236463342791758 0.00796807620155754 0.0262263619971423 -0.0722819347797843 -0.0293998635240667 0.0573255148604455 0.033589599930727 -0.063315494977329 -0.0439963950789577 -0.00308375049900545 -0.0374039953682796 0.0244644460612166 0.0182432669215811 -0.00288607499857103 0.0186607309869405 0.0332650450161877 0.0199206489968227 -0.0140152265006072 -0.01515896149025 -0.0482681449849331 0.0290632200684741 0.00190095705206747 -0.0386894483481685 -0.00459530442809921 -0.063003431478976 -0.0332837618631831 0.00209335423658136 -0.0153547161950655 -0.0270287063810045 -0.00487695836982367 -0.0302233374952747 0.0204059532361687 0.0143086378600917 0.0037952428914027 -0.0284693868909564 -0.0310654426915458 0.0222330557266917 -0.0100396249770258 -0.00291023489832471 0.0408131244008961 0.0163908253530114 0.0207751105687585 -0.0261813794739261 -0.0386730965645666 -0.0341329670760467 0.021866927477944 0.0182294129631758 0.0291559069304335 -0.00668523330247902 -0.0228588007908799 -0.00062861485188376 0.0459975772416499 -0.0125857064643243 -0.000842617613440471 -0.0111291086060486 -0.00258714674698868 -0.0223210670973632 0.0165913494461237 -0.0929802329000726
DPCh_plate1_A07_S7 0.0832473875809502 0.0442469651185788 0.0129272148621792 0.0568233033564869 -0.149660101870593 0.0424296067956177 0.00381905268299785 -0.0203243703361429 -0.00490995567602032 -0.0142554118196026 0.0178930595612077 0.0194676820370233 0.0112009380352634 -0.0271101976557154 0.0292883446726776 -0.045852085343586 -0.0612476446213703 0.000739607020462947 0.0645567817523389 0.0413829953714615 -0.0428381609818597 -0.0843625649080698 0.105139079201947 -0.0912258074232162 -0.190883678201255 0.0483735616422859 0.115650881779187 -0.0258738473996643 0.175469889492025 -0.0585687895989923 0.0566111297019142 -0.0103489739814035 0.00781633268920441 -0.0111764354000513 -0.0423470414181054 -0.0678004285009074 -0.215144682001148 -0.0402879156012553 0.183460069176492 0.0128000738891972 0.122969001246052 0.0419198462272128 0.0768876734899983 0.177936859246765 -0.123120258419162 0.0237106504879739 -0.147794689643501 -0.0981664747494491 0.174969215394352 -0.0977678174155255 -0.206922257665148 -0.0301525299174822 -0.0846326987391154 0.131314589630751 -0.0202371040654297 -0.0184830134165948 0.0484850487616676 0.194778139964489 0.0243790905687867 -0.178384713882305 -0.211787732711824 0.0134960902041672 -0.0123364853005622 0.202154405829655 0.242593022489961 -0.15438735196458 0.12408477710712 -0.0679170014450237 -0.175149898253748 0.119936293955469 0.0587267036708467 0.0268540035607506 0.0908067369278391 0.020584094406747 0.0594793919882669 -0.0284634419333022 -0.20278423576208 -0.0767238887993836 -0.0402723821057536 -0.155159957824068 -0.0119166837033862 -0.0742357950117066 -0.00216021907467781 0.149441166282233 0.0114968313597055 0.0538873633825312 0.0117420889992016 -0.123432960190421 -0.00667288688549579 0.0416393083374482 0.148889426826204 0.00866035983750744 -0.157839364456334 -0.0189607661696734 0.0492055378989458 -0.086505310754529 0.0321826680454403 -0.0266637591947827 -0.0606878131294781 -0.11299336800951 0.00782876911643711 -0.00669349588115423 -0.0130644577369229 0.00955909990532189 0.0118703750889613 0.0119796392651169 -0.00759429357463499 0.014240004191032 -0.0227358964153755 0.00924359612256246 -0.0136401709144636 -0.00862957909174571 -0.0209055004078164 -0.0927023300901129
DPCh_plate1_A08_S8 0.0808338635168592 0.0522107562311784 -0.047046856073962 0.111885578255021 -0.174143264293389 0.0200825154669471 0.00488072333078332 -0.030822868008623 0.0123123864478667 0.00782643505721113 0.00815135069994257 -0.0562212603396404 -0.00736390222841705 0.0469221608238207 -0.0848488377654592 -0.0758365847483666 -0.004809799101362 -0.0263965545371463 0.087247132237779 0.131559624858265 0.17786510657902 0.197423212043305 -0.124489929373427 0.0965962526068591 -0.35512885968603 -0.0945754691834424 -0.0289233228018013 0.0826779307701142 -0.119676825913796 -0.207624773728905 0.235673314419398 -0.102159039633519 -0.0482475727540233 0.195758158013907 -0.130226613485204 -0.0239540432487093 0.0531802268209152 -0.129470751889782 -0.0914180636408493 0.0113186244682472 0.0144259329131713 -0.0392670128120142 0.182695448890654 -0.145711420380535 0.0622568669135855 0.193677517102279 0.0559097103377862 0.159273838494642 0.0943610720234593 0.251615096083198 0.078537401240913 -0.159978425605088 -0.0945831290702291 -0.128594917773636 0.101702008451774 -0.108886222321373 0.103391376014115 -0.0488449644505724 0.00792794828886765 0.0612110052306782 -0.101635493442692 0.0380528089797804 -0.126583685608896 0.0081223563032716 0.0418253863362662 -0.114584462570445 -0.108740738207561 0.00943209343881084 0.0863131052674257 0.00345605853225427 0.0382677292772785 0.0392429190261557 -0.0526468686024087 0.0289114522519849 0.041476133311112 -0.0976957826481836 0.0114692218967429 -0.0741163821504358 0.0504345111689383 -0.00619737407595041 0.136539763756963 0.0341120675513194 0.0186011816358764 -0.0419636036845515 -0.0167338879955335 0.0483026933077868 -0.0550374933805004 0.0097714035173618 0.0171947791303116 0.0500919248082461 0.0610480173406215 0.0290825162832527 0.0736910532595117 0.0557860457836066 -0.00580669548904605 0.0402045398617069 0.0316973651613 -0.03817623072412 -0.0432923805452916 -0.0297940268433633 0.0390982732228783 0.0633424948281773 0.00307826340216035 -0.0294670699496912 0.0245235130518293 -8.49003702630221e-06 -0.0312144785271566 -0.0373266956744972 0.0188429632924025 0.015816883683749 -0.0060838221326335 -0.00763433952429952 0.0190572086664416 -0.091063275728446
DPCh_plate1_A09_S9 -0.107167858123715 -0.0114881775836488 0.119505287548777 0.121168464028136 0.0859392053380055 0.158324539808594 -0.13568474207969 0.0405787450243247 -0.152029376068236 -0.013544031381713 0.235761635717488 0.287961825855299 0.194383191717935 0.192468675551898 -0.128840963235509 0.0128419909792578 0.0236499074052645 0.0173886255823659 -0.0333468785072145 0.0840461384845413 0.0273399047270767 -0.00264799090751837 0.100654686662725 -0.00759909750121934 -0.036973348696803 -0.039023002637376 0.0470394220055579 0.0744669411044928 -0.0218120565138782 0.0702636235424387 -0.00725913580650743 -0.0692215641727758 -0.0555120581153884 -0.0486077958340709 0.041536431578118 0.0179544859834872 -0.000657339012268438 -0.0874149916444231 -0.085987737719567 -0.025045868125226 0.0406768965668682 -0.00230299109172845 0.06806262759316 -0.067943851435551 -0.0501513031077894 -0.0386674879811176 -0.0394705268616314 -0.0465225525310865 -0.0178153823649271 -0.0619027640079548 0.0501118785347899 0.0478503016820068 0.00206838143046094 -0.0173015107932001 0.0264428559266311 -0.031214814835747 0.0921107316318665 0.0779893573482632 0.00444913879513099 -0.0572428299157833 0.0607176692002975 0.00538737964839776 0.00911670658644527 0.0300408191297087 -0.0482309509658772 -4.20612813590579e-05 -0.0834058270687629 -0.00193436393780324 -0.0100920929230459 0.0347641235295672 0.0734575859971387 -0.0204177044967351 0.0321702302301556 0.0556195877739727 -0.0116689490353732 -0.0410018746642061 0.0316896754416218 0.0360416036041574 -0.0792026705393826 0.0469933237729621 -0.0298750724775933 -0.0109267375656779 -0.0197473405648782 -0.0104114232414693 -0.108710364834444 -0.031790016650994 -0.0352775626182616 0.0145848623340315 0.0311603119413365 -0.0526978817215325 -0.0345845683397944 0.0214432466392725 -0.0362355339427953 -0.0391570103406314 -0.0606998215728587 0.0165994790555188 -0.0441275893956421 -0.0800943414038595 -0.0444368681699146 0.0306818693782926 -0.0834668958168057 0.00658541095249633 -0.0481117862837497 -0.0186946605498467 0.311688859480549 -0.0711294861947286 0.0375149454063087 0.0173275664185823 0.00445013419936145 -0.220577829394297 -0.514603997152645 0.16712830930542 -0.0228053395441439 -0.0968541894065319
DPCh_plate1_A10_S10 -0.108880840237892 -0.00724798542992984 0.0823737480954436 0.113623701506913 0.0688640604667476 0.102921565071353 0.0260043020033222 -0.012877580636593 0.0452282324038637 -0.121482296418545 0.0211029816702157 -0.0661645555738762 0.0635003633199274 -0.0101020033074331 -0.0157953448386152 0.0625007190401424 0.000931215029211832 -0.00364076595152507 0.101013470985883 -0.0389254777813832 -0.01753687419432 0.0669060474246457 -0.0532789086376586 -0.00538166339314509 0.025124637425001 0.000250346164071455 -0.0957525271851285 0.056202974410626 -0.045771866881493 -0.135572548880528 0.139139411027229 0.0905746241154983 -0.0672843197540538 -0.147482980864896 0.0505455032703434 -0.00985004331500256 0.0319494684119249 0.0987473284105307 0.0255865052311835 -0.0144870526778581 -0.0317045115960107 -0.0375033269872781 -0.0177704152046514 -0.0632229595794675 0.302319449031429 0.0416174401672451 -0.206654979961856 -0.285561587835825 0.0977582943783051 0.215035523383412 -0.0836974424319456 -0.0113198115138677 0.245243634222048 -0.149526961052424 0.0821633280976288 0.200985910489932 0.0415204249499258 0.039522216492764 -0.244680725901366 -0.140885860712223 0.0543027016067213 -0.061262098998737 0.0507029746993778 0.100032380495063 -0.0474455664913416 0.0281848736211838 0.0240156459332272 -0.298031564589907 0.0225433095214489 0.0157657462822489 -0.0207260342120112 -0.142663503887771 0.0288593280903847 0.0916678874266805 0.0289194057161354 -0.0168958427285991 -0.0198152676605127 -0.0279330595977342 -0.0184474074164285 -0.00908959109507978 -0.00496301872325387 0.024312177749852 0.0449525591397058 -0.00795094640846415 -0.0139601554705447 -0.0737876748507527 0.100686367260198 -0.0878585673351322 0.15410753257432 -0.186161283154497 0.0338310658678949 0.088622081053055 -0.0230164628725936 -0.0148073517152618 0.00219857899751846 -0.0431961078181558 0.119687725087585 0.0899100512956438 0.0748182853022445 0.0590441454470954 0.101006704360391 -0.0070018862679236 0.0238318483130041 -0.020910196324309 -0.0724919989527092 -0.00045540670142705 -0.0145423045245821 -0.0414046637738314 0.0148857216464768 0.0216195026778236 0.00838260184810724 -0.011875379156051 -0.00845390911144777 -0.0965797440901162
DPCh_plate1_A11_S11 -0.105682051994984 -0.0119252588262662 0.103471334324175 -0.0699488797589282 -0.0707686438599464 -0.0755128980632756 0.0222702334789185 -0.0317996116245982 0.0698265222204093 -0.0101781878947108 0.0111251631477123 -0.00587153792311942 0.0209285076692526 0.0861165892314057 0.00446794329160479 0.0127532526112699 -0.00924739782827843 -0.0229606680906862 -0.0629911210373826 -0.0713482201289816 0.061893045008079 -0.0381200905849821 0.0186215620489046 0.0370158329721219 -0.0055536027458709 -0.0496459005964916 0.0903225116055081 0.183240675627823 0.0288584825080656 -0.0591492977362706 0.0302891754892821 0.0161664662535285 0.0769756384094762 -0.0795668381150252 -0.14489462928963 0.0483402085789393 -0.0822745891446624 0.0139918337467534 0.0530479766043106 0.0538740778231636 0.146797444273137 -0.0573429390775793 -0.235255288452055 -0.137937542094256 -0.0712890449698306 -0.0994524618374387 0.0223928142499739 0.0885364121565862 -0.00889457498392515 0.111151999657822 -0.0994664821343792 -0.0665676881884877 0.0575802238210602 0.146984264175935 -0.0310688021928162 0.212234099995317 -0.140725850628607 -0.0111254301700353 0.119780216306687 0.075905377666949 0.0489477769179481 -0.0922272283537883 -0.0601082456769896 -0.253728343030977 0.30036234216859 0.0629368026092802 -0.0546979241846713 0.0616614778840931 0.108495224147011 0.11883461410276 0.181224579391386 0.00351170550609797 -0.07940828293817 0.15543903336177 0.0711218934849867 -0.1035765342598 0.136641770637095 0.0897520949937488 -0.134774674974884 0.121161816998888 0.17290619483922 -0.140253198363131 0.0285210920176883 0.0596153616949909 -0.031297653686407 -0.217136898720929 0.057477516284498 -0.196130467473021 0.123034582047513 0.021858544086527 0.0125684358399909 -0.00539454487118281 0.0664752597947573 -0.0578674700666064 0.0443335077505033 -0.0621114884128765 -0.0660956253187915 -0.0579293046179934 0.0222515477120637 -0.0894288686471729 0.0626944988525521 -0.0561503225093582 0.0933163546282553 0.0198862025381871 -0.0394154200638843 -0.0164689507058883 -0.099104329248079 0.0191808361266099 0.0117549429099964 -0.0267205340265218 -0.0194900630536392 -0.00192891714286285 0.0035361672725979 -0.0971560657128097
DPCh_plate1_A12_S12 -0.108360616474248 -0.00641570113138078 0.0870205363245611 -0.0275905485190741 -0.0808484589350496 -0.188483030889076 -0.0141293045840472 0.0155658154280001 0.0217373956987494 0.0927789349111383 -0.0266387340365106 -0.0711490302773013 -0.0772905246982284 -0.0234748205343856 0.0830352010412413 -0.0186674877858774 0.0858297298239748 -0.0299701291104851 -0.0953814283504328 0.102323056876678 -0.104340249007335 -0.0558989825614535 0.0567697125479576 0.158712720086301 0.0104704525852151 -0.0875889141646877 0.218637995342577 0.121779503461425 0.0890658228761641 -0.0145912916637516 -0.219910664710654 -0.245167135099385 0.139855136455681 -0.0296775277723086 -0.0472052720578912 -0.0535152306659936 0.010759516136151 -0.112101406766237 -0.00387645257814708 -0.0303477537837543 0.0388546560597852 -0.121097277202279 0.0240368481567109 -0.0737915586621381 0.0940267830006078 0.158785636057179 0.0274871950001959 -0.0168726090824466 0.0882754051414267 -0.0329372499807806 0.00639553842029224 0.0859980754239437 0.163264942293903 -0.127016325705609 0.141406961401591 0.0182816708888649 -0.0470725240088466 -0.0023065644671141 -0.0736704264754061 -0.222033521411739 -0.118785214387186 0.281730833883506 -0.177733957596834 -0.174632057024532 0.0298084435441755 0.122146809876372 0.151252066038062 -0.0149497850283139 0.0377852131530051 0.000421371869165604 -0.140497386233929 -0.113571482027137 -0.12202642964574 -0.233670550369694 0.0799310342675616 0.15661411262981 -0.0118592925646334 -0.0597820444827493 -0.0621891747882791 -0.0308968066418453 -0.0245270497720138 0.00710954167351978 -0.0408170342627587 0.00259633102319058 0.00779150167422928 0.0162266286809814 -0.00445262261406332 0.0806605459960768 -0.0165037564931937 0.0721666829212682 -0.00634498177608378 -0.0879984346558629 -0.030824220316292 -0.0172699697027967 -0.0263817827433381 -0.00490013690710538 0.0755473769096994 0.061013736147857 0.0652409944114228 0.00395630826225927 0.118055561269802 -0.00288120069691615 0.0229960104238342 -0.0170785457754649 0.00193832282475896 -0.023910303663494 0.0198617703397783 -0.0282482226350832 -0.00589261364801531 -0.0372027879569457 -0.116655265007916 0.046570493552583 -0.00350005735663071 -0.0964935932054447
DPCh_plate1_B02_S14 -0.0839372339225698 0.0148655427281039 -0.188861099939445 -0.244313808217358 -0.0530155589192207 0.194095272984613 0.0505129344723344 -0.192620667927036 -0.102278176838698 0.453107718411567 0.526161529479902 -0.316953324752125 -0.027760294787711 -0.0467591793664054 0.0165060143557246 0.12326810718462 -0.0645831923950403 0.0165549006498187 -0.0097382542337759 -0.131493429444134 0.040038366456731 -0.0472669487350635 -0.0654150860032111 -0.066902125394499 0.0620428091612581 0.0283024099328942 -0.106062062880576 0.0674084344000561 -0.00602423022591678 -0.00811632160626667 0.00462425297077564 -0.099709166155596 -0.00445140276525368 0.0280499275001697 -0.0746563865497596 -0.0433534603384908 -0.0915207910899453 -0.100585522765857 -0.0921866098464232 0.0763364288440354 -0.0178898950919038 0.00562469813540992 -0.0576283861954689 0.0314001325322545 0.076406655377068 0.00845102581320083 -0.0055667343819878 -0.0437278085385886 0.0952185910665002 -0.0434713951160939 0.0549134083012226 0.120408907848907 -0.0456581095653945 0.022940748377846 0.0387069705808762 -0.0738681538906311 0.0123130448248801 0.0172425706551087 0.073765848252216 -0.0182681520361453 0.0662894541739158 -0.00378378244332947 -0.0161797153296649 0.00384041212396671 -0.0510210055191293 0.0115403065765978 0.0294633019261212 -0.0277553872689941 0.000529400023326416 0.00578382099307087 0.0241034045225852 -0.0371334547906599 0.028891372926861 0.0198579748062004 0.0356491522355275 -0.0417482909972362 0.0173778762632073 -0.0487905650808313 0.0130196657578933 -0.025226169516321 0.000310085604681587 -0.0479038682045459 0.0637343000520309 0.00612902952611594 0.0169374441708328 -0.0296346022477993 0.0217494012427441 -0.0087234879187282 0.033256447516353 -0.0359971274916915 0.000695060266432582 0.0295896966033857 -0.0210267867753024 0.00338711292659214 -0.00291593487968425 0.0120615965620104 0.00506887241750843 -0.0125399343833556 0.000776579736294699 0.0038326872030702 -0.0108939167073323 0.00415336303915336 -0.0325248164625845 -0.00787191054225274 -0.0358155466055565 0.0190473363261145 -0.00271597494027768 -0.00967593189935912 0.00375729218901785 0.00152183560011959 0.0109577349907836 -0.0084216780652273 0.00224025383150538 -0.093633968068645
DPCh_plate1_B05_S17 0.0829799402902808 0.0629552708987579 0.00259451666948387 -0.00483491356556008 -0.00533531324303215 -0.00436712020066101 0.00346889526163018 0.0367602832304861 -0.0112561515863104 -0.00352057256030039 0.0157348117420422 0.00905674592536942 0.0213529739144615 -0.00227512384502508 -0.00351107821962094 -0.0145451812554727 -0.0196470108615555 -0.0640496897624662 0.111444157012316 0.028608132554711 -0.0027609974778065 0.0681937132847634 -0.0222936745026221 -0.0571899454212952 -0.0711890547949443 -0.106983756697042 0.0115031210390012 0.0424606121724454 -0.114303442719301 -0.109478393912061 -0.0114196055039904 0.0497747291603744 -0.00993830334760926 0.116097785216027 -0.0547440302614507 0.184697169720605 0.224841571939053 0.0727552782119536 0.00681444171588509 -0.136468994895619 0.378493836307536 0.0366412554462111 -0.0777052616214563 0.141713657396286 0.0316424502728982 0.049409632316936 -0.0113481301902934 0.215671848521626 0.0846318994927056 0.0831006097092349 0.0194170219144558 0.34593713582106 0.221723159307203 0.105963684369406 -0.154547782354195 -0.149165613003981 -0.0808070273188503 -0.0873754797203775 0.0692566907458918 0.00499430684619945 -0.0850652402645481 -0.0356919871020538 0.163811236197817 0.0242969616998355 -0.159080058685742 0.192788561218178 -0.00477127902091223 -0.0984310547348543 -0.166442581747644 0.0883424221900158 -0.0315087112087146 -0.0390211870027731 -0.0137217110961475 -0.0848363536952448 0.0604914372627143 -0.132199904242444 0.0144572971186117 -0.0019662984725847 -0.0718197974305383 0.054513954782033 -0.171532450604197 -0.0532410924196735 0.00535186944117184 0.172281084884151 0.0399456158526103 0.0480268400229297 -0.0495833738251142 -0.0588509665440778 0.0539832050416534 0.0154620329070427 -0.104194043351317 -0.05955599698603 -0.0466991883814053 -0.0330548400183922 0.0549174484493625 0.0330783478110596 -0.00586869720993017 0.0458377644569354 -0.0550699426401203 0.0313243297677082 0.000179267371689019 -0.0122260361747055 0.0604313848091837 -0.0523317276510454 0.0137260354741823 0.0158994359097413 -0.0234381509037792 0.0304837209462865 -0.0521192953951271 0.00372175939845921 -0.00712704131205583 -0.0385666305993067 -0.0378831575180482 -0.0927641639350413
DPCh_plate1_B06_S18 0.0820626161128567 0.0880801008878263 -0.0585494594185257 0.0457507381060158 0.0530534201340405 -0.0498353202959373 -0.028827399443419 0.064107330987717 -0.042806078743992 0.0321985705610017 0.00943678637476312 0.187182296476035 -0.166489265183847 -0.147631244402735 0.0203076229537323 0.425816810341646 0.221153507661685 0.206790757538271 -0.119958058554689 0.0402844017231495 0.138893539721881 0.0717607042802052 -0.0344089030984727 -0.320826442002525 -0.0235457404139762 0.297421585028086 0.142668726621132 0.0728847328174501 0.00498197740360954 -0.168701586338598 0.00987887697812537 0.0749054508588442 0.117976809703289 0.143763599709482 -0.0955874815920097 0.287542273789035 0.171782486271081 -0.13995027417412 0.0120011997894343 0.0903759381844265 -0.0478038223572365 -0.15019447362203 0.0404709399166937 -0.0392962767698713 0.0697911434003054 -0.0118631020691166 0.0130769189891007 -0.0490282148757856 -0.0987176518461151 -0.064083807285333 -0.0490436563370012 -0.00795861552196941 -0.0843135913383353 0.0171030588925494 0.00851961288137356 0.0698063226088444 -0.0638948471296715 0.0809695950442153 -0.086190338408001 -0.0441452437267429 0.0252858221973435 0.0130656049944548 0.0194920638748638 -0.0529947111600824 0.0114810658601696 -0.0189503923843093 0.0120729157273702 0.0362215480527589 -0.015546700829126 -0.0135626330399939 0.0219239266761276 -0.0269368447102227 -0.0194948917296116 -0.0101665601316573 0.0409386676766753 -0.0563981671579674 -0.0611043845278068 0.0150864977932203 0.0457843467067413 -0.0470417522455668 0.0114777324725106 0.0451264564949327 -0.0175101416774073 -0.0221586348447377 0.0479253634923918 -0.02870068928461 -0.0289731849890511 -0.0132130996605253 0.0113222363540155 -0.0282120587003556 -0.0192760284913115 -0.0325830422631837 -0.0442638088344963 0.0104503885510531 0.0332436782191837 0.00942141143424242 0.0134058729937786 0.00504162039928935 0.00439460626613524 0.00569153762918595 0.00862467395233819 -0.0255187050211303 0.0226351400984723 0.0166027353643795 -0.0106710209663103 0.0103998631650774 0.0367383149922537 -0.0112586071911716 -0.0306973079991049 0.0130247124962166 -0.0165849399404438 -0.00358898088642356 0.00560742277593309 -0.0920689665716738
DPCh_plate1_B07_S19 0.0847824539434415 0.0575393776651672 0.00174173647985455 0.0505884855569758 -0.137201893185486 0.0262970952018185 0.0142052671633885 -0.037006737105797 0.0145460117109512 -0.0117345082327418 -0.00048902677942393 0.0531027600942509 -0.00209263518485063 -0.0140814587127858 0.0162568509588448 -0.00618567055753843 0.122148629690326 0.0795765188621371 -0.120591580610817 -0.0469048915017682 -0.111294637389802 -0.115520772227705 0.0331177272887169 0.0427446521000867 0.0753771939772159 0.0612444045021129 -0.00560696999689554 -0.0916341447062047 -0.00307908925893132 0.0943910051599241 0.118973846118409 0.00170297265174834 0.133287515156269 -0.0705017676598416 0.113418656809276 0.0740598875550012 0.0184529051891667 -0.11549349738561 0.0704983216743893 0.0684522073092083 -0.162075637472758 0.250667113063111 -0.193710979941028 -0.11015174415397 -0.0503042941584038 -0.0664702652091859 -0.079188831288231 0.0368293116163374 0.0910667741611216 -0.0508077619597004 0.0799030649804117 0.0716256388154019 0.225780455010347 -0.089342053154299 -0.0992426328191794 -0.0428498280204669 -0.0738958728371784 -0.15355203535538 0.170508631831557 0.0113888707158827 -0.131507823396581 0.0885383691589918 -0.0201267692646159 0.136067722706934 0.0246537392462323 -0.163474842043716 -0.170873594682849 -0.111121793988625 -0.0287804305896425 0.104458764142118 -0.0676610747054833 -0.2410224329024 -0.248128018658677 0.0247339706020842 0.102543561805837 -0.257719281503022 0.0398479714521187 0.00630186943697679 0.0781969430842279 -0.0704280356800684 0.13595256947612 0.110384845945513 0.0121790191724727 -0.0647678794885869 -0.068381653515769 0.00466607956639753 -0.182226472777356 0.0594749160241629 -0.0634107602143776 0.0535898550826509 0.034789368723848 0.179991681209421 0.0521799677276384 0.0690710194899176 0.00439355053728734 -0.0138453170942158 0.0384202167153547 0.00307773093392515 -0.0271797113184307 -0.0114551246711937 0.0206697012783911 -0.0568803317592629 -0.0281024574712735 -0.00831678465579001 0.0147448135975958 0.0411515912161579 0.0620733769736122 -0.0200400358711984 -0.00241522230330243 -0.000549728250441262 0.00564783189895681 0.00583021112804789 0.0140551401139018 -0.0918267829406993
DPCh_plate1_B08_S20 0.0828655064894791 0.0461356511917423 -0.0285986311816883 0.0908273653548608 -0.177905712593859 0.0529430344613833 -0.0302191601128208 -0.0224270643606899 0.00125318223205784 -0.0164490884476336 -0.00651016419651509 0.0221736562833211 0.034281691904933 -0.0600373363299867 0.00722309379780178 0.0959144629594052 -0.0830766516649447 -0.0499811909070907 -0.0361652299638379 0.0432464261525838 -0.0614006187532552 -0.102445019285016 0.192940431895134 -0.0628324025033088 0.306541670031266 0.192477009926678 0.0659123545857045 -0.0077432615033205 0.16453478071088 -0.121687758307599 -0.000833436405426245 -0.0781670591717615 -0.136721700378821 0.0805605019441783 -0.0887068346555207 -0.149608047146971 -0.0999565221608085 0.361469795028563 -0.137055208411272 -0.195279249357784 0.163433687655632 -0.269332095062401 0.0658313306107594 0.0462301437617412 -0.101693662341474 -0.00582491987615423 0.0377568694097921 -0.00179430011192724 0.105683515937875 0.140593507052662 0.119486558565013 -0.0812718521901597 -0.0858070850945245 -0.087278714074144 -0.0193114622923121 0.0527294978027391 -0.0541782172400247 -0.0206526217209255 0.0479227656206075 -0.072267951259569 -0.113304907812714 -0.081319204946684 0.0108802558626997 0.0114229495041764 -0.148234655999417 -0.124155003923446 0.0190353588621604 0.0132560443663186 0.0225786191821921 -0.02156982724495 -0.0285052212429984 -0.0193004940387007 -0.101881501509913 -0.0066236436049834 0.0113989504590192 -0.0936355130497973 0.0764927188659421 0.0387686048795315 -0.0130782173074275 -0.0672900278026562 0.0763966727384969 -0.0507050462039278 0.0690798669466744 -0.121990102234204 -0.0146354692019851 -0.0683512973065992 -0.128085610749673 0.0474713718567055 -0.0588072606982325 -0.0684447322176723 -0.124589984573982 0.0442958733226023 0.145754037011301 -0.0907135907930658 -0.0196336572904214 0.0437413965817737 -0.0108620904614285 0.00402415296546802 -0.032274557029852 0.0520864580266551 -0.0253309710717256 0.00737986707024808 0.0736875383065118 -0.0506210757720967 -0.00019349116505234 0.0648052193805953 0.00168707983023252 -0.0450325089096443 0.00443013732581047 0.00540912458712594 -0.0115386007230947 0.0107199921638175 0.0258242491977259 -0.0922094362607143
DPCh_plate1_B09_S21 -0.105271460518168 -0.0109320165252949 0.057448980784444 0.0314637976547675 0.0326759671555194 0.0944056402806781 0.00169866590995322 0.0218095786618482 0.00281000522897948 0.0446293955197498 -0.0522304437850443 -0.00407589780855108 0.213221108322723 -0.0794032043660682 -0.116448311885113 0.000400460360857204 0.0316974257325571 0.0320753201725236 -0.00853268921075466 -0.17914978130407 0.0864556671894588 -0.0440371693305819 0.00382825162317797 0.0139357883531261 -0.0136352935573332 0.1193234130623 -0.0406458451946523 -0.147456720871237 0.0115189092721938 -0.0149875397578084 -0.0850570175059127 0.0445297175010124 -0.0802103282684104 -0.0176654692045262 -0.128182406120078 -0.037106176612631 -0.0491385466208541 -0.124875948000617 0.0724513596045371 0.0150024082624607 -0.025015060872902 -0.0606370013314762 -0.18326300538877 0.046026338039813 0.0135389527472916 -0.00924807900151144 0.0418850527833084 0.109834948486618 -0.0739475401441431 0.161554352154886 -0.121712851014934 0.0523146405191326 -0.0733955974081194 0.0109847501887827 -0.0258049814170768 -0.075312695838574 -0.0100908483658471 -0.105516231722434 -0.0517391270329801 0.226623628956004 -0.0886641376164786 -0.229429886514505 -0.0479561684007454 0.0345372110967987 0.0429199979972942 -0.161034121700509 0.190851911310801 0.135796222879115 -0.0262987944828424 -0.0901780286800496 -0.180875546414439 0.00150840084276137 -0.0652503837413082 -0.255004226582268 0.138515315386773 0.110360270144333 -0.0297343708712081 -0.0629908681840848 -0.124935866628919 -0.0150403700011404 -0.0237708293088324 0.253097350101817 -0.0953331640674031 0.0305552559889408 -0.228570804604828 0.00349002907796331 -0.0161605769567349 -0.0171174516982228 0.156812070865928 -0.0518282864994938 0.0155528726240187 0.0351537032742145 -0.10030519974782 -0.0182236155325545 -0.116486348178121 0.0588831053446557 0.136965506383971 -0.0407965335929192 0.0361785552509772 0.0308253941117497 0.15004634622174 0.028024115859238 0.142139089488798 -0.09020854990722 0.0595449715959198 0.00273826147368757 -0.0132290157856076 0.0127035116931538 0.0457989150612466 -0.00074578189298644 -0.0379025548184235 0.0193578640670113 -0.00941275886839249 -0.095038305258721
DPCh_plate1_B10_S22 -0.109284234073305 -0.0121542549104974 0.113571539096684 0.11790686015768 0.0698211167843501 0.102052956398497 -0.0484073229067659 0.00188998609186422 -0.036753259881448 -0.0456880180434155 -0.0563351969177169 0.026597973073436 -0.01175635138444 -0.0721208089550974 0.0912464836109214 -0.0122890999878759 0.0547165443832492 -0.0524294215454381 0.0463830554643019 -0.028543480056207 0.00219013911044736 -0.0519712627467456 -0.0539557499071136 0.0170036426075284 0.0585680045848704 -0.0136734068339728 0.0723511357210971 0.0626129307088831 -0.0280069600651339 0.0763923699588092 0.092150723803767 0.100449432324574 0.063778405632801 0.0456073705968474 0.0588777727161947 -0.0907887251104563 -0.0607971387916229 -0.0190529196480295 0.0567798217402699 -0.0806534195208579 -0.0198287562920014 -0.0768489785808415 -0.144048922795202 -0.0339054964982439 -0.0119152390426713 -0.0443440446430957 0.00964932099602855 0.0396132589215412 -0.0394401741848712 0.0303478425430772 -0.0649318134452269 0.229708570927344 -0.174402066973326 -0.0390063485855043 -0.0526524734489764 -0.226080246536077 0.151949716543019 0.0373054947256965 -0.0991006909861952 -0.0646752480853655 0.0251131009619057 0.00579660244298761 -0.0386988272535171 -0.0164278584054072 -0.00607103716972163 -0.0186437082432114 -0.125238779462249 0.175375488553154 0.0565966248107378 0.061345086935725 0.212669883143138 -0.0316503594552052 0.0699432692264616 0.00784600787058298 0.0891086265041544 -0.114937068203589 0.0383643493023235 -0.0703052583054485 0.111472122752373 -0.0308467337836122 0.0224954935917616 -0.177131349176801 0.0539498793077047 -0.0116522699940694 0.245717658693325 -0.110820811665451 0.0795172065702736 0.0287327809056885 -0.164267549692079 0.162247582198068 0.0229114059737327 0.0240742984227138 -0.0970233238342467 -0.0432200720534183 -0.319258329365689 0.138579563947606 0.23977957534022 0.138346595116411 0.0664586580047403 0.154923761668995 0.12775293814039 0.04348073604716 -0.0293896421383581 -0.0774688496544015 -0.157989207815876 0.0239842730428384 -0.0509906477133373 -0.0665945570666657 -0.0114871461614259 -0.010735039593703 -0.00166442469926528 0.0128600036947973 0.00508470030211481 -0.0965233489089396
DPCh_plate1_B11_S23 -0.107030631400282 -0.00662351889552514 0.0915923795409901 -0.0237605008620577 -0.0802509328369968 -0.136228024167389 0.0369544761593819 -0.0204950504614675 -0.0329731814188735 0.0341387392745142 -0.0284386884927185 -0.00145936501386063 -0.0879916929142678 -0.0679649094163184 0.00638851537325398 0.00708438413315512 0.0791927194629692 0.0284004536189659 0.0999320406070985 -0.0130404131257535 -0.207207763319751 0.191092654883999 0.127625987227223 0.0515716637983847 0.0160773028996234 0.0170371585875361 0.208464487155475 -0.0421399374155191 -0.0891690473112881 0.23754786253829 0.094879701691691 -0.0312833386307213 -0.355471449726197 0.148719814777218 0.0726724873324149 0.0475400847776669 0.00760066285164993 -0.143863440589555 -0.0112175513884861 -0.00688267486109681 0.0264457953443052 -0.0351837574348782 -0.0556957462649289 0.112281870005911 0.0878114901430713 -0.0654834359476577 0.0121663649586902 -0.0970479993678061 -0.08755251512904 -0.0775104399901018 0.125036595965391 -0.0988756792997163 0.0300695389349971 0.0408926250988704 0.128995963080076 -0.200637494527818 0.0514772044562697 -0.0556734999732182 0.0849290586826717 -0.0776672801836283 -0.048557452967948 -0.0762411627778419 0.118359518134267 -0.0431160646311532 0.0518570775333519 -0.00605570831419908 0.130451274611663 0.0729944843651387 0.131906036723161 0.0797372557314651 -0.185696091982323 0.125795973127094 -0.0375872059030872 0.037423456479359 -0.0874178809035226 -0.11284297795112 0.019759092375817 0.0320989497047744 0.215747223902204 0.0144904222316813 0.0547505565479963 0.0725824461013265 0.0934262323067718 0.0883340823086559 0.0381890769520434 -0.0897843349498759 0.0776188076338097 -0.262616691301048 0.110570402576563 -0.0827208585251813 -0.0556697146492258 0.0609168570516079 0.0517864252282078 -0.0391135819157492 0.0598230701789617 -0.0838366454032637 0.0765251983732815 0.00692611264175902 0.00383307405683393 0.0201327484477796 -0.00760824026823819 -0.0150051770793757 -0.0631674045627025 -0.0296193622562257 -0.0219106037491694 0.00585260551634974 0.0016566296823247 -0.0117121925592631 0.0238766126563299 -0.0207873452689383 -0.0250665743087851 0.00753293230234599 -0.0103639034811177 -0.096382697170677
DPCh_plate1_B12_S24 -0.111328860695118 -0.00758863136192196 0.0950801455685351 -0.02220986385014 -0.0868883853139866 -0.209032204895334 0.0292837043792674 0.0218851971469967 0.0314244912444087 0.014985777001811 0.0327276928627065 -0.0192802341262692 -0.0797389565356278 0.180100535383818 0.0378158552018436 0.00212704504594874 0.0215667053342924 -0.0948677744488414 -0.124107917287807 0.0557825052253325 0.00126184688688249 0.047735235958909 0.0917047336048948 -0.0154613471096215 -0.108737066083654 0.0687457463515012 -0.139923428937854 -0.104641551169257 0.110365698635391 -0.00353117537931776 -0.206457007057143 -0.0891958092259369 0.093829043628315 0.0364104127814181 0.0827418317254814 0.0124393732284528 0.0198272325034792 -0.0656328811259976 -0.0378920412738599 -0.0852169955959386 0.0219894393484572 -0.00742253231797289 -0.019180904001628 0.0668038047324171 0.0334150126009061 0.0750118254747498 -0.0107502662222307 -0.0746515995712063 0.00771939445827881 0.0578250832756637 0.00618490092951634 -0.00244066622446856 -0.115024040956415 0.0981511205243213 -0.13403769039164 0.0106894161997879 -0.122629484023889 -0.0992101551667358 -0.0932851532171929 0.13205842293434 -0.00613255516362179 0.0317109430867588 -0.0314099872135999 0.021930135566364 -0.0856099889191021 -0.0920906517246267 -0.117579919046598 -0.311010306897242 -0.172862898188556 -0.286793671861335 0.0220359177806515 0.0428493720623106 0.0855975685181746 -0.0342415766543061 -0.0412794455706556 -0.026409606219278 -0.0158603790674031 -0.0135438651505078 0.275095577589646 0.0726136030921622 0.213483663439804 -0.0951134040244132 -0.11104772260742 0.0994376515138748 -0.0531235197806299 -0.224741549081264 0.0998951291331346 -0.157051949432891 -0.0130003729067301 -0.0114538591301542 -0.0520516104460939 0.0663725922287346 -0.0854954582640445 -0.00131779725908426 -0.167296804951526 0.10810143126033 0.00482112811988543 -0.0774500415604982 -0.0567102401202034 0.0481287034765837 -0.0432254177233453 0.033364499209727 -0.0670807212551166 -0.0248738780445613 0.0527818348066169 0.0238915967227257 -0.00952882082175503 0.0152953619483639 -0.00706049635384221 -0.0195973118272585 0.0417188735688377 0.00711958449924964 0.021686462151867 -0.0958376571642686
DPCh_plate1_C02_S26 -0.0931367918228814 0.0116456407980744 -0.152708164520133 -0.179173606380101 -0.0219474522560151 0.213974478663298 0.0910386778469534 -0.113656267066791 -0.0011747216105051 0.162577155422053 0.193462159120038 -0.00329635730801439 -0.0577378286295421 0.114258077465711 0.0303309357069791 -0.0320404578027534 0.119712874931006 -0.0475287533120654 0.0613544585460994 0.193716374660706 -0.103672168496722 -0.0502715637520706 -0.0534214966643831 0.0624005587620498 -0.074537900806856 -0.0558814427416681 0.212664980077458 -0.0868951275645357 0.0530970720634725 -0.0206571388009457 0.0357221463147221 0.278749980818894 -0.0454987763463633 0.0530158059922397 0.3058833283272 0.0655428045122325 0.124301423082047 0.128901701664724 0.227376012513029 -0.167038029137326 0.0691031194367595 -0.0389942769797672 -0.0995442187177634 -0.0564193336636146 -0.143920712779736 0.0596152583338153 0.0604363876995808 0.0973543680365072 -0.192460236853975 0.0607331970139194 -0.122667031514044 -0.262467088332277 0.0193212167889152 -0.0843396770330429 -0.101856144870582 0.144660738991904 -0.0358587231563378 -0.0304801745929933 -0.181551341654244 -0.0348567671602826 -0.121584587020917 0.0294010732679783 0.0069135455251505 -0.0360146389506578 0.0178107206906299 -0.00902553408548495 -0.0586567772767897 -0.00966148093512999 0.0072410149360146 -0.0506420287387123 -0.00215522583002973 0.0650496138806696 -0.0552506482921028 -0.0259067581923131 -0.0905251186129014 0.0474363433595433 -0.0624890170473226 0.0585111315638935 0.0121344060737924 0.0135576598629023 -0.0124999784999436 0.112019917012595 -0.0504716366197378 0.000496365706827196 0.0206187335309232 0.0518998097043352 -0.0316671099125302 0.0253272505036479 -0.0464626075236288 0.0361459089747712 -0.00144568455257611 -0.0101757288020695 0.00827766792876111 -0.00642135388449864 -0.0228215255528455 0.000430207714716789 0.0388055695047103 0.0339257399144657 0.0141825008684047 0.0336877469706396 0.0380347637764671 -0.00408142249007661 0.0419779933966061 0.0100259950520341 0.0372683861413378 -0.0228651238661263 -0.0158106916858616 0.00600828799193665 -0.0129307045087706 -0.00202005452288471 -0.0356822520874655 0.0101812290702955 0.0109204143982576 -0.0919718162925843
DPCh_plate1_C03_S27 -0.100716132635936 -0.0038258463535311 -0.0891518571778838 -0.085463179726578 0.0208324320637629 0.113537265252347 0.0938409874243755 -0.0609928071809666 0.0870889945904975 -0.0183803443651467 -0.163262452305033 -0.00581883598818029 0.0519642506340384 -0.254776462961569 -0.187760408436613 -0.0423395230463968 -0.0253025819178271 0.0102648545617488 -0.0288189610896021 -0.114989074655366 0.120033546587649 0.145765342911903 0.159073380026778 0.00860041548837345 -0.110754393337558 0.0327838534444237 -0.169120711669855 -0.299331708432757 0.16175009394456 -0.220718747199372 -0.115043202264504 -0.260853590006747 -0.199996969133926 -0.0916752096998394 0.261482087447528 0.233650065727159 0.00737700127598411 0.0509916502959778 -0.0503850917309571 0.192056613931389 0.147529609435651 -0.00386416236333692 -0.121605003566999 -0.110690310414396 -0.0517253208166274 0.0576195911869123 -0.05010020856173 0.117648558053897 -0.0392638893766234 -0.127408343772771 0.0394025617754185 -0.0266120451862998 0.0329306799210037 -0.104371341020827 -0.00855136832767874 0.0394475572366252 0.132752480642637 0.0684994448933761 0.0181381339883122 -0.173016169658732 0.0766702391812982 -0.0134606078543131 -0.00267874954613726 -0.073801634381563 0.0263569716019872 0.0396688020350776 -0.0347795711356608 0.0147972741266744 -0.00329194991341437 0.0694352751536465 0.0444295116738251 -0.0238384468269667 -0.0295336479781623 0.00727223655984781 0.00330998186791791 0.0121998121245949 0.0227310460361215 -0.0360538618360907 0.0312949562893578 -0.0105513584896038 0.00841617464902731 -0.0998023272209602 0.0100959929451168 -0.0262087465740815 0.0364185075439045 -0.0319800357901186 0.0106176984485288 -0.0043339276158199 -0.0773202738467846 0.0844919853057433 -0.0278730224065164 -0.051125917800352 -0.0239212591392742 0.0035972565957451 -0.0705773449155565 0.00553125642868921 -0.000350679511009225 -0.0355611894939374 0.000843231687249038 0.0102565280589156 -0.00656288193210444 -0.0108023841788848 -0.0411169598788112 0.0139207661439307 -0.00612173752223333 -0.00246206243503653 -0.0130572240967391 0.0077857937476345 -0.00833775542516273 -0.00572643145935303 -0.021107173868402 0.00838034517728984 0.00433382173340942 -0.0937613001363423
DPCh_plate1_C05_S29 0.0815768214772842 0.0695480449950303 0.0168261935404155 -0.00971514810642376 0.000182377568836973 0.00771468186945372 -0.00167626710104017 -0.00556988374109107 0.0176412239374678 0.00229287669966855 0.00674550680960248 0.00244340388601801 0.0148118281078383 0.011586535456681 0.0218099450274325 0.0130166517286518 -0.0235058090586624 -0.0271086319811229 -0.00718736833355432 -0.012612453882293 -0.0536680472904186 -0.0138230779393006 0.104507607522479 0.0303213846945917 -0.0203050502743228 0.048161643826669 0.0119014862461974 -0.107768832833758 0.00247101564340433 -0.0983956657738848 0.132447022416963 -0.125205162343546 0.0725016143443743 -0.000794092092052459 0.0475523211555464 -0.0673769336979233 0.105399198112755 -0.071608285369291 0.0301922927939112 -0.1403542441779 -0.0188827317625532 0.183386975692717 -0.0560617413506003 -0.0474575560393969 0.0753637426273082 -0.0810894325086424 -0.13950021880528 0.0953071017863788 0.198635230803526 -0.154524775814522 -0.0416348257340912 -0.0678804528639636 0.0870335016499373 -0.152502491136953 0.0686352226163289 -0.131737002483457 -0.352027409051668 0.37593265423834 -0.132963455316073 0.18362518707686 -0.144017689895265 -0.12739971986526 -0.0195063883014817 -0.0947997338779638 -0.0167478317209966 -0.0176961130419792 -0.00863744985949424 0.157861455142466 0.157690541689249 -0.146050035895396 -0.101967642097682 0.0458379791615947 0.218328581942102 0.116293315047844 0.0187813967691695 0.0915920111862038 0.041048968560723 0.163626524137747 0.000480067262387711 0.0914501696053956 -0.0605706320482592 -0.074391526919189 0.160250043386933 0.00353307837683668 0.00991358193730017 -0.0553783173831361 -0.00320074493927015 0.0894857274415928 0.083202655849458 0.0174429535762095 -0.102930704199821 -0.0115035755081093 -0.0641096318401641 0.0736203626796568 0.0122218202800238 0.130312195463993 0.0351794037173968 0.0332378941213349 -0.0245411376253167 0.0019150401812193 -0.027736544665947 -0.00824566872126943 -0.0039862142982162 0.0301253571140845 -0.000861444030326402 0.00376868851973638 -0.02496267291958 -0.0377365104187097 -0.0312778545384458 0.0100698470876724 -0.00219812085855746 0.0116584770784583 -0.00756331018165897 -0.0918698791736817
DPCh_plate1_C06_S30 0.0809659101392462 0.0865411025857689 -0.0473185002901596 0.00930172444124301 0.0947441321414793 -0.034412857725794 -0.0262166381924949 0.0666186166628473 -0.0218165456767673 0.00585363225882267 0.0344027040590828 0.128613247935291 -0.126650225655021 -0.0208374547476892 0.0624174214361908 0.353127318213971 0.0929642597329463 0.0300711082222759 -0.315715571050165 -0.0613621666537987 -0.10407476068095 0.191525484488069 -0.165815119124425 0.380982781308611 0.102009600704471 -0.283603546785082 -0.239793092426867 -0.0507781609709541 0.296354813063463 0.0345737612769412 0.13438120384952 0.0634771793351856 -0.151009233119978 -0.0107702343017746 -0.0614992540601217 -0.0179826246620779 -0.169104949239207 -0.0163732075150935 0.0310021185541071 -0.0286735529015038 0.113664013308671 0.051087139573874 0.141437975381866 0.0629852982437407 -0.0444077887906104 0.0105645604590791 0.0404885343357032 0.0774299659843018 -0.108814302042758 0.0466799475480056 -0.10842317473597 0.07234537838404 0.022331184844836 -0.111084119616619 0.0415263575354373 -0.0264727058024115 -0.0590709169742685 0.0093390847486745 0.0371717063897841 0.0666385374825681 -0.0532187975059047 -0.0244266950375272 0.0284821222022742 0.0271538815633676 0.0104669107735207 0.0455541691289706 0.0204221099508276 -0.0271769887105431 0.0164192913043598 0.0183937432298717 0.0582088567721171 -0.0243489522444035 0.0359149539916426 0.0161125398947427 -0.0335560098469962 0.0374144238935011 -0.0849964293210343 -0.0275594174549538 -0.0167933936340252 -0.0383271758880448 0.0176178545108547 -0.020052017363361 0.0218070925973831 0.00798286700019799 -0.0286613306243265 0.00278392146496252 -0.0232862598823279 -0.0292383925469554 -0.0143474062262854 -0.00894492285211651 0.00455264183911643 -0.00185708491640896 -0.0310999601655817 -0.0310545354072584 -0.0283762332043521 -0.045293453578223 0.0212162402501381 -0.00889223099116015 -0.0156929477365247 -0.00659555848391421 0.0155851783178397 -0.000851617135752682 0.00845363000605954 0.0158980139718033 -0.00928785376105894 0.00841282539787658 -0.00209314244393669 0.0415414530111135 0.000977359619064253 -0.0096491977116002 -0.0117893470555012 0.0023476280198368 -0.00410031721224336 -0.0920983553331313
DPCh_plate1_C07_S31 0.0797245372516875 0.0439167922327811 0.0166125357136878 0.0404278287542375 -0.0910268494570343 0.0405589961148983 0.00286209326783907 -0.0300077164736958 0.0110839741016662 0.0010088651089025 -0.00933859455851681 0.00890389821341216 0.0191827605071278 -0.0116672669591079 -0.00361975452529497 -0.000441914401359758 0.0590705670243598 -0.0456894725421559 -0.0868933593444111 0.00862344725156261 -0.131956228663962 -0.159184631581843 0.150765970711123 0.11006292229953 0.10080749959977 0.138201422523128 0.0394059082293094 -0.130991604158714 0.0451676068204159 -0.014250369644644 0.298323877686953 0.00334989984631662 0.0820998524947255 0.0269709573320064 0.0392192360447168 -0.035036499399253 -0.0977560368724032 -0.137382193330309 -0.0329502656144737 0.152513387707682 0.0118588947361684 0.203938551334089 0.0755026296744863 -0.15224652346698 0.112949565066625 0.229682012149052 -0.0275197415746927 0.0367579205275003 -0.0567096305873734 0.208094533371284 0.136440847892162 -0.0265370919871819 -0.0215605006633335 0.402687021698138 -0.0861838668639072 0.0299600060838414 0.215503813839994 0.095588229949977 -0.164502231555903 0.055826373446872 0.0745451368527404 0.0559482346053633 0.136556329967842 -0.111499251519531 -0.00698074350253992 0.207424972309034 0.111034490238976 -0.000878841325260789 -0.0437514350345586 -0.0969181872992849 -0.0188035314676916 0.117548246143492 -0.0843660060145636 -0.0489005948565946 -0.00276310360356181 -0.0310934846503026 -0.00859437599261927 0.04504131901161 -0.0476273985987426 -0.0436915955448225 -0.102518478844352 -0.0613538315149783 0.0112213072460554 0.00807133979634548 -0.0205008955820859 -0.00988513277554502 0.0773910878859904 0.0762458033190002 -0.0356716261043821 0.000303915612735739 -0.0913667037716981 0.021519314128467 0.0255944904962351 -0.0415344978030297 -0.0327717354073185 0.0176760629369691 -0.0656688616031556 -0.00727756705342559 0.0526235589188396 0.0303965466548294 -0.0188285601409985 0.0483689754418385 0.102220529345811 0.0724706041330627 -0.021314178461649 0.025294139880346 0.0406965333996905 0.0555825439303243 -0.063424643267018 0.0201741057411254 -0.0109344862832172 -0.00561482200585694 -0.0268791801930102 -0.0933043314123256
DPCh_plate1_C08_S32 0.0818703652779397 0.0692307243929309 -0.0475866230738628 0.134592138029849 -0.203984573292625 0.027895334887314 -0.0244155118269942 -0.0488139082795227 -0.0381315856082174 -0.0243053683854841 -0.0209440067007098 0.00669488718811261 0.0390399073962602 0.0836069140954787 -0.00835153771557791 -0.0312122410197778 0.0147825631325012 -0.0324494643597324 0.100880731761901 -0.0199819819800525 0.0152197217597199 0.109683063818545 0.0582016195297379 0.0213481827451278 0.290517488952967 -0.218388710345486 -0.168787139168347 0.0364063564166485 0.0448731004369454 -0.0748936673438294 -0.149174257784912 0.0807183058017546 -0.0192803145715225 0.074308124986734 0.00566140796232171 0.0332760104332137 0.200744817045443 -0.251069610746902 0.259873386761002 0.161868442054455 -0.170352841211899 -0.126381895076384 -0.0813070278562021 -0.0680929117394159 -0.308980747527787 0.0474185112443286 -0.114424489943973 -0.202596657071869 0.234265880190162 0.00729633426833176 -0.080913325100912 -0.118539343518575 -0.171043719413143 0.0105550305730247 0.080441774049152 -0.0528667929880071 -0.00280274201396051 -0.0204787051033527 0.044679361101942 0.00189935293683499 0.00384704996416079 -0.09312391833108 0.075451790898914 -0.141145894281593 -0.16501428100876 0.139314018983115 0.0347318394536588 -0.0737704392129479 0.0101731048370809 0.0752820251306849 0.0378933459312093 0.0403178820035345 -0.0105490001280883 -0.0799188055224791 0.0278652671480576 -0.0412398087342325 -0.0125362106461997 0.072361211736057 0.0154691588920193 0.0295100810372449 -0.0557352489122789 -0.0312925202874369 -0.0394300888518018 0.0231764287098183 0.004468679951858 0.0855262331656689 0.0284238279110959 0.0242726219080295 0.0435173786166044 6.90070751597845e-05 -0.0208407383264098 -0.047845796212952 0.0534620723219478 -0.0361159057348046 -0.0411501855700753 0.0399438535328737 -0.0297680708522775 0.00458539214989769 0.00454071420711042 0.00504628608875932 0.0325631681218971 -0.0338472984054041 0.0025541130657222 0.0314467782486464 -0.00224124807021798 -0.0219774695755848 -0.0146658177414504 -0.0313866231640063 -0.0378480265239472 0.0122265757111747 0.0160902676337273 -0.0144832132391079 -0.0215944398439318 -0.0915985638363453
DPCh_plate1_C09_S33 -0.109365578905133 -0.0146103707043358 0.0795919348136044 0.116115011180646 0.081778677607127 0.114603216854152 -0.0400410333920162 0.00154603702828201 -0.0454472918247542 0.0494256025428237 -0.0391995327111054 0.00870070854612366 8.74289988306316e-05 -0.178391931963614 0.0212440989325646 -0.0558186404321572 0.0175095482151224 0.0327028666056358 0.0443845523075422 0.0102288822768956 0.082082192557791 -0.0403001322755724 4.35141681844053e-05 0.0896221468740707 0.0639023294474164 -0.0863460064566175 0.180446218385315 0.0505070222012705 0.0193168054043758 -0.00217035337680322 0.0316965502072382 -0.0321992799967206 0.0411795971333907 0.0103374087048266 0.15017722260916 0.0261226000272006 -0.0129237073829767 0.102006486751731 -0.00221274414008229 0.0580798102158134 -0.084894999218194 -0.0972429002181888 0.0255354106086969 -0.0986315169281272 -0.15158919673229 0.0903191792273604 0.0870950778263183 0.105083327117751 0.0311189501956665 -0.02879219082095 -0.133523480987012 0.266030725208853 -0.159282271634614 0.0405187606744381 -0.00797131093106049 -0.0344124150567188 -0.0399481915064759 0.0544556738543203 -0.0926698189199832 0.0821265919959328 0.0487028958262425 0.17183014326033 -0.0527541284715755 0.0523713267428049 0.0575391433131842 0.0343569143267311 0.000110628098548744 -0.0741630120594089 0.15228267177603 -0.0181226910080608 -0.22035712478888 -0.0581476652864726 0.0963899548423402 0.0609794079659388 -0.223684257740849 -0.141235390796482 0.0193570852668556 -0.117965917211591 0.147065632608745 0.0589601084062051 0.00274379001842789 -0.211910890453784 -0.0143961459694152 -0.0310826739822099 -0.172369103380475 0.0828427793356599 -0.132791610892525 -0.0356750088189411 0.186248865200651 -0.275380817197456 0.0290895285071317 0.0601649788652715 -0.0470124337341543 0.0407310888292242 0.0510822189888401 -0.02220844177113 -0.11602509490233 -0.106789576078465 -0.0675629260373401 -0.0638681622754388 -0.00882407771848967 -0.0596919162359866 0.111949486862817 0.0129150336817121 0.0903732347286276 -0.0217578226257778 0.0358248501209231 0.0338258579678515 0.014531264613219 0.0941782620868216 0.171432583486482 -0.0667202168976636 0.00210250745476906 -0.0957808509936963
DPCh_plate1_C10_S34 -0.106007747357183 -0.0078045056909651 0.0777726939268314 0.118982278305309 0.0554396777386266 0.0667126905148543 -0.0108917566479756 -0.0231289495299132 0.0794438038534713 0.10795021862164 -0.0539992478008783 -0.117648135874211 -0.152972658640788 0.00798600967979557 0.0574439475150773 -0.00520638319996863 0.0412591223038591 -0.0801166469477 -0.0638834364360729 0.0166720221480321 -0.115772005060731 0.150491187017059 0.0396419734309989 0.0787546069095185 0.00245841389576147 -0.0378222795526761 0.190674606253073 0.207628384508113 0.0172243419713093 -0.178764740057749 -0.0801251359974025 0.0525637546787018 0.141085781979647 -0.183231138012562 0.0334767850951892 0.000695590296463789 0.0817446259034345 0.0666929708111778 -0.185880616347476 0.188165421785802 0.0398363914379155 0.116784041332116 0.0885680645271144 -0.0403458420472994 -0.076764266932491 -0.144373834859357 -0.119531186313693 -0.0786390010763725 0.0248409548706446 0.0798053444397471 0.000132498054055834 0.0163548941490466 -0.0132706936482744 -0.0378423812513343 -0.0648080710730552 -0.0166048321010954 0.0753579211492666 0.0429810994069523 0.10512966439611 0.0114618359401416 0.0153048493289244 -0.122474402601125 -0.0524430768421527 0.0538131646721358 -0.0830092059224357 -0.0988642364321843 -0.155403589036921 0.0938726389485615 -0.0775578922086005 0.0602191388070036 -0.0592045621687422 0.163898545762433 0.0470574786235243 -0.107589417966994 -0.145314136080766 -0.0210829230933058 -0.0295895890315513 0.0314355149599391 -0.0138847534559916 -0.119337245746199 -0.179627313589682 0.284749998414775 0.135207078827442 -0.0565147195833509 -0.121397032094243 -0.0604881689347526 0.0700067370301174 -0.115491061970523 -0.0818647560502151 0.0665633411325154 -0.118242881813576 -0.0249916111864741 -0.0742814426937784 0.0762141231601496 -0.133068284348974 0.00542746225054077 -0.10990776930536 -0.137631346890906 -0.0635402489999054 -0.0975320871795088 -0.0325112444387903 0.0174751824235391 0.0468917599297785 -0.0232352048455488 -0.131823080082755 0.0975725466105605 -0.0742220538201133 0.0151412127214519 -0.0130831501450482 -0.0272398733818178 0.0280586559193332 0.00357403857448806 -0.0065884739380727 -0.0950231931088217
DPCh_plate1_C11_S35 -0.107479826936617 -0.00533900268659967 0.0817284476564955 -0.0485854027212289 -0.0604538024153805 -0.128555559043516 0.0226475662986098 -0.00196177641048501 0.0248453557704929 -0.0137963896216652 0.0476974328407322 -0.0170282986572632 0.0463563723197711 0.0452896169127329 -0.0281127655711165 0.0479099567470039 0.0372237328863119 0.000764205215380696 0.00728783045185399 0.0825393259806316 0.219425625537038 -0.148975670738793 0.0150793123758914 0.0293115395219021 -0.0371280157238251 -0.019198929944 -0.100137149353232 -0.122143108772439 0.0822742091326671 0.00165815192287959 -0.0540825758662373 0.0712315358091065 0.140800751582307 0.00623932378808517 0.078397170068587 -0.00297743288703703 0.0811405974747064 0.0704162643966772 0.0158670346801665 -0.0573564506474744 -0.0340192404469986 0.0603608172556264 0.218434074192409 0.113174836690993 -0.0597855000148745 -0.0986701667959742 -0.00717260785308795 0.0388082385451828 -0.121636282015595 -0.0292263644586478 0.0606317972254752 -0.177944713691958 -0.129123000461757 -0.0655055124791284 -0.135722208387991 -0.299741319724227 0.0643887114789034 0.103499452029292 0.0681707709518337 -0.00599324485357148 0.140635656086751 0.141480639451383 -0.0235436697967249 0.00928624811750032 -0.120657298252083 0.0607781758161132 0.0521352516962671 -0.0761012379453355 0.0633618524131524 0.116445387156706 -0.152519365744854 -0.148649314653357 0.0593807744476358 0.109230643101529 0.120054724006341 -0.153171789976368 0.0293114545131965 -0.0174694312888994 -0.214213830362677 -0.0457685369497413 -0.0235449308714526 0.0533802866174693 0.093240558374746 -0.0805539458425231 -0.109726842665242 -0.130278636617807 0.212962489928954 -0.12125159923921 -0.00528839747287637 0.0399032144498712 -0.0826764634924111 -0.0568657612004243 0.0439481657861453 -0.00971646009085314 0.131520063191147 -0.13623791798422 0.105416069698577 0.0947865885545858 0.114414625336359 -0.0610054746394702 0.168717806746069 -0.0446443474250248 0.174542165831628 0.0062438685599788 0.0322368753488353 -0.02363662364409 -0.0150512584836177 -0.0559853872715173 -0.0134428971802439 0.0307467062090836 0.0429345765187978 -0.0303247009085715 -0.00116302019898803 -0.0962686790446552
DPCh_plate1_C12_S36 -0.107455033035744 -0.0135891147461593 0.104962096260245 -0.0757519890254497 -0.0622436997130361 -0.0780666207118897 -0.0129026483378089 0.00469191210433262 -0.0189958638010804 -0.035014761463112 0.00647477964425529 0.030793932312749 -0.0403256405992359 0.0218215209152458 -0.0468490044408637 -0.0183947777475817 0.0474867506910621 -0.150019286426097 0.0037570102834969 0.00419837982911275 -0.0302972408630431 0.0234275254578948 -0.0858125944714113 -0.12423577223362 -0.026412561020266 0.0251592898273015 -0.0644437445530919 -0.14796670334893 -0.0363741680835894 0.0752891369522352 0.044828023893474 0.109131502447631 -0.165347351527649 0.166997868007076 0.0533492366793945 -0.0467639534977912 -0.0656402585687392 -0.0991953720916518 -0.062566443100704 -0.0459112382399966 -0.0280359196141717 -0.0611148616128262 -0.0555875540560619 0.0145747846592732 0.0776348787574856 -0.0784717593242173 -0.127751030173823 -0.138103168732278 -0.0110988138653023 0.00296346664551913 -0.0024549245896307 0.1393475917233 -0.0458247032876256 -0.0101841128282276 -0.00251217222395077 -0.0212920525310087 -0.0214959021781166 -0.118792638383252 -0.163662027432927 -0.0567882429250971 -0.168303358196711 -0.0630401117552065 -0.0839615948394445 -0.228407283245654 0.0944648654822929 -0.0499905474021901 -0.127734772576388 0.00293600243509442 -0.042980042252006 -0.0491596423836458 0.145897240857408 -0.128734496356228 0.118063869478614 -0.0953393705139751 -0.0647962290778564 -0.0770581456467909 0.0424761030526473 -0.161116570209593 -0.0888857685051244 -0.0254691186164446 -0.154880652794873 -0.112160629571251 0.0407284761117269 -0.195216174337607 -0.339812236291906 0.0528372217563444 -0.060490243371804 0.117715255623678 -0.116925025627043 0.0980891203880617 -0.0618597511464318 -0.136526257599793 0.0377172351597979 0.080781210709992 0.207233224999276 -0.103564897860392 -0.133360709825053 -0.00223884941901262 0.00716547536339714 -0.129330356730214 -0.106538242884473 -0.0122543200309389 0.0446630433658503 0.0831541360169533 -0.183149424100833 0.0335748388309314 -0.0569879343522241 0.00960720721471501 -0.0253881438189728 -0.00615768020343107 -0.0232288982032661 -0.00253008929442675 -0.016251393678548 -0.0965332567845654
DPCh_plate1_D01_S37 -0.0926431013920006 0.0129269282196238 -0.145460316107527 -0.0572770708208123 0.0110805434739509 0.113089045345117 0.0127960421056755 0.0116508884036027 0.197119567340137 -0.416660983540385 -0.000480234225621431 -0.196574497071271 0.0311407851020659 0.432346718179666 0.0167514598660233 0.207884123725452 -0.205778234824157 0.21123831549076 -0.00274100915787792 -0.284328175784853 0.0226157581854319 0.064048920487569 -0.00808091842869471 0.00956604072789398 -0.0183670606256451 0.109833465488027 0.137061568862506 0.0973515767212307 0.0730137549332764 -0.0077211056883841 -0.000518715263932417 0.0262318275871788 0.0340044212103348 0.0712233693070077 0.307402806795709 -0.0390550329922721 0.0195529550338526 -0.143714787370683 -0.0826915178604627 -0.0141592549494606 -0.00432519149039491 -0.0280530604793023 0.0179334293211997 0.133395996097636 -0.0187344372322248 0.0471443481040822 0.13534234199286 0.0156076773409253 0.0414701565360866 0.064368071101157 0.00797350987119149 0.100018879000211 -0.0191191893388439 -0.00831918971256806 -0.00663721799315586 -0.0135677394502849 0.00286898989573885 0.024830430976275 0.0837346875756803 -0.0208843112639581 -0.0202555544300093 0.0137749062390275 -0.0638849719811474 -0.0538464663219701 0.0354608155249789 0.0306894316604556 0.0860324293596109 0.0148512586976097 0.0120805255094794 -0.0123412057004876 -0.0941327427358657 0.00291521787586152 -0.0245609057936591 0.0250385479129784 -0.00255182173195185 -0.0162335679797377 0.0054131484071035 -0.0328425370115899 -0.00268991799132445 -0.0354911840851812 -0.0145051101889969 -0.0260045762190234 0.0135753340094797 -0.027757280977652 0.0131304882628687 0.0811692374899257 -0.022319394409581 0.0387556365100464 -0.0328638279142751 0.0264517330067685 0.00279452700004509 -0.0171472751888482 0.00961734847394547 0.00103580774149937 0.0132862276091578 0.0118377214842699 -0.0073893605565572 -0.0124514738887288 -0.0300704993293647 -0.00533359176936593 -0.022862226090534 0.0154539363671599 -0.0189008794444281 0.00505582365886102 -0.0312162084551076 0.00182631568162161 0.0268140859011674 -0.00591958769897344 -0.00353743466291643 -0.0140428430870233 -0.0181493505992613 0.00109398383689733 0.00412781636560294 -0.0928054167854779
DPCh_plate1_D02_S38 -0.105590145644788 0.0119281377663128 -0.174294668108067 -0.0970173920796405 0.0208888007904027 0.0727304007146271 0.102619717863669 -0.0671502116423025 0.0669466425045495 0.0160280109255344 -0.188852688901417 0.221583614981751 0.153163373689857 -0.155244716133896 -0.308022299033665 -0.0798658817688696 0.206867168612184 -0.193842687613674 -0.103274701403459 -0.139304820770457 -0.144212084514968 0.0844862337595751 -0.0916794510319253 -0.242588039526443 -0.0124424904234028 -0.0963262588656892 -0.0923940019899845 0.349673289574318 0.110126110455621 0.0228325836112364 0.092815022149147 0.0564960908690809 0.142916515886654 0.0245416578180348 0.0860983430118294 -0.196639333750988 -0.0417224966893129 -0.029516850701249 -0.14196678154948 0.0153694087112548 -0.0368934984896904 0.0119580194211844 -0.134625950145408 0.230377671331959 0.0533440754284307 0.0371721456337956 0.132108819883313 0.0128548937003987 0.050758562750624 -0.0227671077947764 0.0495674296578827 -0.16185064551874 -0.0344068822653676 0.0729763403131631 0.066723357743254 -0.0670425155009314 -0.123510953072665 0.017115273432213 -0.0513724286530165 -0.0139940071518666 -0.0656186037440038 0.144095254744983 -0.000325888503261538 0.0547641695267338 -0.0951396326417604 0.0523919800682752 0.0083869829495799 -0.0698434601541723 0.000389632677088932 0.00342511181722248 -0.0344048695582962 0.0307156971324797 -0.0216470315521715 0.0359866005522189 -0.00034303113087468 -0.00279981306226277 0.00725944427596004 -0.00786880407426936 -0.0218542273776312 0.0132652901614756 0.00961379145492928 2.30340086791823e-06 0.00866934940634762 0.0155271623588885 0.0466946396310554 -0.00882453383244155 0.00487572847758458 -0.0106179151228622 -0.0152316003159233 0.00819723158543284 -0.0034075705862131 -0.00684224286991725 -0.0151364066435276 0.0159565264131296 0.00556379918827185 -0.017183368663522 -0.0425023003188942 -0.0304816938926755 -0.00855870235602755 -0.0173585772751665 0.0180060828785918 -0.00792341485065578 0.0532595165697208 -0.00644801415545606 0.0141374000556574 -0.00601662040417631 -0.0183594289974125 0.00294152567524636 0.00437189810853801 -0.0097873368831586 -0.00978522575911889 0.00915771572062843 0.00540452703539572 -0.0922878784560692
DPCh_plate1_D03_S39 -0.0999005590914016 0.00929269424531864 -0.124419364078588 -0.0705383941209334 0.0136566933346161 0.0821582527237675 0.127671009050427 -0.055424546000278 0.100616396601232 -0.185847649621288 -0.141826778506479 -0.273990454262504 0.0193768662667288 -0.0472953405228305 -0.22704784730266 0.266633767333522 0.386708317364238 0.00593273291992522 0.161486493805586 0.228679701437501 0.150348588013435 -0.0955923778548162 0.195599208919153 0.189217275261014 -0.0152750118168413 -0.103739721781318 0.0659345841640419 -0.00706901658827024 -0.131464185733896 0.252727065667634 -0.0337706649840762 -0.00483821899973039 0.100137051168459 0.0846275635594246 -0.195014021190978 -0.0720946493092203 -0.060911755270636 -0.0301979945987026 -0.0925067565229789 0.00702321438416034 0.122707230453193 0.012213151820733 -0.00692547562141909 -0.0524628401267497 -0.122741758525391 -0.0880724709651838 -0.0822738043888147 -0.0093146266142604 0.0138440181921053 -0.0991523847725077 0.0264312116818589 -0.0090823459904992 0.0241894257959348 -0.00100630421731662 0.00506000046295012 0.088449103273666 0.0202615527196295 0.0198505658734969 0.0416411551702496 0.0361490715193075 0.014852023664197 -0.0914608799691543 0.0721546762531412 0.022683622839035 -0.040127577453986 -0.0633020887583397 -0.00650854552690559 -0.0842554301872928 -0.0962907528080061 -0.095927428879899 0.0643686454924141 -0.0339803907726465 0.0765602756796117 -0.00405140196592315 0.00865248227187355 0.0416957114215602 0.0166634879765811 -0.0616047718788195 -0.0124071201852803 0.0164381104712723 -0.0179489246470635 -0.0390392780242177 0.0350965506967688 -0.0165611651937266 0.0563948421102773 0.0552117925969768 -0.0218880280719305 0.0700089218160327 0.0196208569790839 -0.0811840369144748 0.0408560888074707 0.0323221267951996 -0.00754907114538762 0.0136347922480088 -0.0181544852288689 0.0230645125486103 -0.00596338060798271 -0.00610509575924935 0.00587637842955019 0.00664227667635499 -0.041826585603141 0.0070203164432654 -0.0414426570267997 0.0142929422468804 -0.00803834721401294 0.000135738731366143 0.015578922286207 1.95634990312234e-05 0.0019603649359678 -0.0115241517817642 0.00384784522913524 0.0108355487094989 -0.0111448909654712 -0.0939664833007287
DPCh_plate1_D04_S40 -0.0993730262521763 0.0609208657429945 -0.370136502357878 0.380359627600705 0.19558298458552 -0.308130517300299 0.664922700000066 -0.0286724392694997 -0.0772361854789951 0.0169542722968569 0.0813365967932517 0.102387781626906 0.080671757128494 0.0305614948185946 0.0600109270863377 -0.054669591680347 -0.0928303944235136 -0.0408298906537727 0.0014433135070259 0.0381012939774797 0.0156816966734233 -0.0993460275851168 -0.0749880155054613 -0.0130257019901874 0.0616365650256657 0.0328368646360502 0.0524937258410124 -0.051563440853414 -0.0304760363477419 0.0435110439347386 -0.00703405333533104 -0.0281163004530706 -0.030459573237296 -0.0303660250574131 -0.00882228703665257 0.00560717577485334 -0.034038331559516 -0.0519966260044714 -0.0126707655235562 -0.0188681033586051 -0.00197786543885399 0.00939437364735507 0.0256591191775162 -0.00706989506868301 -0.0226881325273153 0.0240266966069749 -0.026311590587737 0.0172453440036369 0.0459158508800669 0.0313704297421306 -0.0140666128008412 0.080504960770521 -0.00894454646823175 -0.0573444912567725 -0.0502271052918737 0.0344229611790846 0.0318566945195528 0.00536591588459574 0.0087526247598494 -0.0063205399643182 0.00568082876411171 -0.0291495552667521 -0.0175749272551236 -0.0372077870725122 0.0252098857100537 -0.00105520235698278 -0.00918248627756703 0.0406697752098573 0.0153886131582371 0.00666798026173973 0.0136633962445825 0.023343585122825 0.00650579646163132 0.0118990861717484 -0.0108429448072396 -0.0268899991625371 -0.0131132430380422 0.0219435832184372 -0.010498757221075 -0.00767706345055617 -0.00956321671392332 0.021703814921398 0.0165726657322825 -0.0170526920621898 0.00357009407622554 -0.00477342265956817 0.0120580638104479 -0.0195665990766796 0.0169587065882117 0.00197995837835576 -0.00330936459160869 -0.0206969890821347 -0.00667621298411848 -0.00945845641098157 0.000868722972643396 -0.00802389381560332 -0.0267285999240019 -0.00549904403691722 0.00132237683415074 -0.0195163378906578 -0.0152454607523545 -0.000199164024128354 -0.0059613503166497 0.00285134332718803 -0.00540562384836872 0.00405547574699989 -0.00676744063569988 -0.0162993145493701 0.00937102722078855 -0.00708218281633869 -0.0280415571685935 0.0177833300175157 -0.00668715204278167 -0.0943808021176372
DPCh_plate1_D05_S41 0.0821974277036891 0.0666997419905207 0.0156077791802726 -0.0379987901304945 0.0454422150202941 -0.000391229677845923 -0.00582480077324258 0.018959394066145 0.00928017275881663 0.0186286922687487 0.0187995086190515 -0.00161747973749944 0.0311271295472906 0.0155222365164566 0.017885230708538 -0.018520451157753 -0.0530652514397606 0.0379080152742409 -0.00745629496145812 0.0346108523935219 -0.0605925118036056 -0.0505408459755676 0.0186969848705164 -0.0234979750783547 -0.0350830920179357 -0.0190269183356169 0.0759931764427698 -0.0841072982714252 0.0107603275793853 0.0576983197223708 0.0454787510883731 -0.0369680998096984 0.130443456765482 8.02051384230125e-05 0.0194582925485532 -0.0597717749808936 0.0887800190663445 0.00401060299353503 -0.0410689698444438 -0.0089975476053774 0.0485614616550134 -0.0657080912069382 -0.0737406387745025 0.201644945843094 -0.0752169020426095 -0.110164263307069 -0.261162070441269 0.140295409933281 0.0765214031717799 0.151242714932861 0.218384308865899 -0.0763818561747936 -0.0574760612115202 -0.169239568116977 0.293880207989431 -0.0240649967896904 -0.0960305453860272 -0.0325973296074126 -0.16916385686409 0.120852915590424 0.399978162729957 -0.0504885852539499 0.053454368898052 0.0671249750700203 0.196197513630306 0.233211979034447 0.0560196035466592 0.0842438924810533 -0.178665391680567 0.0864377459556573 0.0527334714352177 -0.120473692781321 -0.00780542291135805 -0.0937788647790554 -0.127474946590747 -0.0242697225601692 -0.177796440460499 -0.050749885851324 0.107306799837112 -0.0825034102865715 0.0746230097167188 -3.42566825031936e-05 -0.13668089076242 -0.0877531373825516 -0.0253434066653812 -0.0233201809643418 -0.149832760488716 -0.0757588032355582 -0.0159836644282794 0.0866607479320105 0.0446377116693462 -0.00334883974991109 0.0298576862601207 -0.0073033755032178 -0.039899622936423 -0.0718331804947877 -0.0306892686315197 -0.0182159735208467 -0.00707088445225694 0.0313934349224952 0.00867299456667872 0.0130917909989106 0.0268732790667891 0.0179672916869876 -0.0111654691739665 -0.0115554338377274 -0.0194813195228708 0.0354315266534542 0.0394002429847406 -0.0328912970742739 0.0192725506282489 0.0079214338869651 0.0211640451384051 -0.0926590873531577
DPCh_plate1_D06_S42 0.080429926621556 0.107803687651858 -0.085123864040988 0.072452148633949 0.204974331334843 -0.19727895383474 -0.268993551063472 -0.582795102138572 0.0122299207332819 -0.0389395124693958 -0.0317078778190326 -0.0307263222044314 0.0340247878953444 0.0291268401442782 -0.0343606726081036 -0.0609350193766375 -0.00708783477154464 0.0176447468235529 -0.0081130019128088 0.00169583101584283 -0.00244152382000237 0.0053649577534376 -0.0178150121481963 0.0294500385638501 -0.0355293910772131 0.00299999057426491 -0.015517872081828 -0.00974312054644727 -0.00881249083441989 -0.0157114399788153 -0.0355313766260688 0.0256802341198485 -0.0368738141557359 0.00965330906401876 -0.0366578406643911 -0.0140265668553914 -0.0260343234453578 0.0247146435063619 0.0172243005478591 0.00510736895270308 0.030410067531845 -0.054694343557516 0.00329321467993055 0.0305099620147671 -0.0504723972389082 0.0155067535443417 0.02762931967754 -0.0659636684526387 -0.0558102693908684 0.00174128068537001 -0.0514076192767123 0.0084295564451613 0.0506011197709742 -0.017099374134728 0.0209342897711047 -0.0422455832948564 0.0052657981901155 0.0116378741013768 0.0311148527890664 -0.0108101558877465 0.00296850671524087 0.0324356988272952 -0.0143665746809653 0.0213178478914023 0.0636787581759134 -0.0494312438434478 -0.0221692326278431 0.00609317894176951 -0.0225258857721459 -0.0214776889934297 -0.0219923561212057 -0.0505933697538335 -0.04706567176885 0.0180742620934301 0.0328971242291106 -0.0169861118760892 0.0726336781170466 0.0946853964006866 0.0511460403369072 0.0168757233407376 -0.0928024175649636 0.0100860544821553 -0.061115604917977 -0.062628284299874 0.0284129685288495 -0.0558315401227572 -0.0656409839910443 -0.131828322808501 0.0342024616516087 0.0516294594190229 0.0427198150308485 0.0182442564629569 -0.128839590527889 0.0891266809740852 0.046597221626918 0.0992322269815968 -0.070833202152894 -0.00556976827768938 0.27093959761618 0.126811032429099 -0.205938308290762 0.227663742995267 0.203762257145798 0.116644924975781 -0.0262432650346068 -0.0567558491779517 0.184689999711444 -0.0705805518807992 -0.112140866612889 0.0275348085955294 0.0040891296685414 0.0551848630388507 -0.0295495281603819 -0.0916809044540622
DPCh_plate1_D07_S43 0.0846620890347367 0.0470015930672525 0.00970185160169895 0.079585550783243 -0.249859915736156 0.0770965562476559 0.0357864606056477 -0.0109086861572815 0.022389188460952 -0.0152196315443925 -0.0208394800108439 -0.0277860114205152 0.0473574268460869 -0.0277324078432901 -0.0593579166468457 -0.0197194606558972 -0.0644627888868915 -0.0258214469753436 -0.0573084753179104 0.0825662196337817 0.0629646203798331 0.0432634698946552 -0.153816095988351 0.0863551906924752 0.0229547594420639 0.180513920632764 0.00462039213638353 0.120341012629015 0.123738390312811 0.164045702783075 -0.0797134989190648 0.0581558261602335 -0.0795591447733141 -0.0428600613451205 -0.023774447718591 0.0194886182755465 -0.0711129194626917 0.0694039480809175 -0.0537317995625988 0.0222247023102261 -0.053980742633815 -0.0907532533012631 0.00187953307678303 0.0692947220149706 -0.032452224551621 0.102888350401274 -0.0678249908676291 -0.00657633425145376 -0.138011781349706 -0.106205324983841 -0.0268764859199347 0.021317888265139 0.158415541911095 0.0341194845863114 -0.0558478227997984 -0.0431162104735994 0.0175539756124152 0.0493576938798546 -0.0563708213706683 -0.0338157868788236 0.175473993354023 -0.0643873790134393 -0.0119836130846682 0.00652888407688332 0.0532232248667317 0.161010397849747 -0.0858100397255845 0.0137635397264341 0.0283075738077959 -0.0875284477905937 0.0351784271381531 0.00722371051104785 -0.0234213029152124 -0.0263967797963162 0.0121080642512355 0.00972156715825577 -0.0312427179255124 0.049510743445797 0.076406681456641 0.0731035207018806 -0.0933379684159708 0.0358475875677247 -0.00467973466198165 -0.0396650958658239 -0.012853265056615 0.028617421096022 0.00361484850306212 -0.0595405887148466 0.053481854987123 0.109591747775781 0.00571447278512564 0.134819461179607 -0.00527637948614209 0.195890248402754 0.182551457534532 0.394297179571458 0.0476042207421648 0.129781467488157 -0.0296710474699389 -0.383465022536135 0.0858146577256381 0.0698784800797164 -0.0767646574257518 -0.210562720136366 0.0609216636419689 -0.0604308456284622 -0.0201150029102945 -0.0481479311493696 -0.0395219718598122 -0.047826963490856 0.0380042489945442 0.0437098138629235 -0.0263523437183953 -0.0922400946685751
DPCh_plate1_D08_S44 0.0833813911068326 0.0557091476107834 -0.0296888824428632 0.103018948169283 -0.163206103493038 0.0253783242742768 0.00879120395877653 -0.0106872418208746 0.00372986198278903 -0.000201456507545647 -0.0170683895306345 -0.0163995623079542 -0.0559688570970315 -0.0224859848942256 0.0942489273395502 -0.0218551929886528 0.0435618987848903 0.0788433027024986 0.0531181383636543 -0.266299098306384 -0.110960112314238 -0.18980666789388 0.0691358260038548 -0.0453854005435749 -0.186872269795601 -0.287867841375077 -0.10514390754688 -0.00769984176873465 -0.0618954369296552 0.144380956722061 -0.155646109824051 0.166542717517391 -0.0592512631230814 -0.124126201179731 -0.0164352828684079 0.171165303971415 -0.0654662789433121 -0.00826927009022772 -0.192191338913368 -0.141645470624449 0.0276303793994035 -0.0341288106894962 0.140193907162622 -0.0395151242617681 0.0966750489507549 0.0355708993752049 0.0184505885944246 0.0213002655572939 0.00919191348782661 -0.00947919225210961 -0.0331023488190292 -0.0719668122982823 -0.124594941200756 0.103003215302314 0.0898163489151431 0.148262709299266 -0.0930786366081102 0.193958755486609 -0.125534873804922 -0.100639434808607 0.121107950859416 -0.105096436367134 -0.0321904203851417 -0.0849793029092306 -0.148904454901814 -0.0837564141535906 -0.182780674352402 0.203302600140449 0.0113285440206028 -0.057192183790927 -0.13734536856461 -0.13275250145349 -0.149834303077269 -0.0268856869808475 0.00602381476363693 -0.131874543883624 0.0561865388726528 -0.102400918111853 0.00761328384874192 -0.0439625961707859 0.0184347800302195 0.0201803838402488 -0.0754768110322671 0.196205076889788 0.028972690612404 0.0589668923349007 -0.0100799208795446 0.00297774213364646 -0.0308871845301679 0.0319926421084916 -0.029201066604051 0.0476388496449793 -0.0650948050594109 -0.0209161938969748 0.0375240727380521 -0.0182648184265927 0.00342067340147305 -0.0314967822641451 0.0586430099896979 -0.00735199235524412 -0.030653125926783 -0.0633581562535668 0.0140957237754562 0.0113206688833662 0.0084416658025027 0.00694040142113968 -0.000221059571604987 -0.0132432275529905 -0.006299282815927 -0.0337947027822783 0.0148410215989309 -0.0268720155391068 0.00928598891048678 -0.0919538469416167
DPCh_plate1_D09_S45 -0.109300683672007 -0.0113124061688996 0.117631521808303 0.157208373051836 0.0992678544575989 0.118898735558996 -0.0548523169897126 0.0292638647009116 -0.0450085880026324 -0.0197884019138882 -0.0358902970050262 -0.123304062969506 0.039266110485415 -0.148588820313995 -0.0298731798671905 -0.00679662677749422 -0.104421350030987 0.133968361729839 0.0940679073728266 0.00216061072858137 -0.044828960736458 -0.0617103700753839 -0.136769787654308 -0.0560542538598253 0.0348319004961884 0.039514511418157 -0.146176674840826 -0.0607604714931285 -0.0438751340552141 -0.0312789822861199 0.00163194969824281 0.0150973923131272 0.00249545849564286 0.03493175697918 -0.0697024119163206 -0.0323545509686596 -0.0424102716316229 -0.0515751260469414 0.0840323506347675 -0.048326807981179 0.00147890123054345 0.0413038954319955 0.0959918686920526 -0.020761685067655 -0.136047681464995 0.0605206504892242 0.10150281943568 0.165149337532741 0.0259758000582963 -0.108138657519641 0.0622436256705275 -0.0379078990794694 -0.00785686215282458 0.0335994460513288 -0.0314444410034629 0.155298388355503 -0.141303009253013 -0.00844724311122478 0.0757389373742718 0.0741003567689521 -0.00260856367162581 0.147485052608383 0.0134019078645145 -0.00516117295330862 -0.0199678572039371 0.0240713203786604 0.0132992200746681 -0.0997272321785086 -0.0924919878296836 -0.0699522535526206 -0.0935283861672694 0.0855187803201904 -0.000706271086047091 -0.00590102603585772 -0.106414373495509 0.0182650307683913 -0.049870472123492 0.0407817194839558 0.176453762095776 -0.0107186530494243 0.0585002778125285 0.0582817556365593 0.0203035923541568 0.0258400857143088 0.0577703004306459 -0.00453291680040462 0.00631275553910411 -0.0517576077307978 -0.0173713416822161 0.0115423463648693 -0.0112722895123794 -0.0130593077825696 0.0708699463504438 0.051684930107472 0.110292380837323 -0.0756449102294138 -0.00383175650153733 0.0587949899607371 0.107458850364282 -0.0732134241987843 0.0783483237089046 -0.00408044987448503 0.047360626181527 0.0274938897662224 -0.438427239655385 0.0812081104100834 -0.174026174295795 -0.112259976157573 -0.0979183691678784 -0.21256004779404 -0.351941366880752 0.0704407949943916 -0.0148692743159231 -0.0968089636942775
DPCh_plate1_D10_S46 -0.106874363476923 -0.00681230026503064 0.0932203924296412 0.16986267549044 0.110015252261539 0.194923961096025 -0.0932625255319247 0.038468750790093 -0.183642427472965 0.0160734855184774 0.212823515059429 0.277981626667888 0.178426724327484 0.218285378138396 -0.108623303890723 -0.0234690099342694 0.0648775749159059 -0.0237090276655597 -0.129557026825518 0.083171410803815 0.0440241100449141 -0.00586330710237446 0.166884993974787 0.0130030898720556 -0.0970142443199443 -0.0648959234797192 0.0585387162091275 -0.0438460504397392 0.0294149713977812 0.116830906864552 -0.083301520783234 -0.15243762933776 -0.0410033520153734 0.0335955119072029 -0.0147693634739223 0.0942305144909167 0.0266690641580941 0.0430885609151197 -0.136575771437031 0.0626117947507134 -0.0323464287524446 0.0291919417797782 0.0269304559821449 0.05316895871698 -0.0009146832401735 0.00430265649758155 0.040386209397911 -0.0172441223232939 0.0112624539867716 0.0178134463905536 -0.000662200322014402 -0.0235416365867658 0.0515841957339752 -0.00432710983851642 0.036211499941852 -0.0130038241603949 -0.0622353818516491 -0.00820312463231343 0.0915873615072744 -0.0832453115803302 -0.0127792943938371 -0.0265140824968094 -0.0349804214858438 -0.0862230256399748 0.0241430600346155 0.017697294939403 0.0360660631770815 -0.00255812790478174 -0.0894829246036326 -0.0819083475581658 0.018162293169795 0.0716917330785254 -0.0696714137474979 0.0694548787166582 0.0617175017460366 0.0546087726090985 -0.0397783404311747 0.0773346745861951 -0.0337314010615036 0.0281886360200086 0.0104091883565238 0.0495333566019428 -0.0370329144649079 0.0360678351497545 0.0724254530961638 0.0915946341660694 -0.0214085150809021 0.0497057023679245 0.0140580390341476 -0.0154306022016249 0.0839340818547403 0.0132689951946457 0.047348995829697 -0.00229040653898833 0.0473561507481319 0.00796568906455138 0.0293655305391656 0.0858583924226258 0.0345553798526737 0.00483796876921431 0.0379959146327827 0.0284863765491054 -0.00464641781749626 0.0341208083150063 -0.367800202594102 0.106615408469385 -0.0299146839105933 -0.0196230552136284 -0.00820165041449567 0.137820779336275 0.392409150413638 -0.127282614695631 0.0128616722736581 -0.0960067783759923
DPCh_plate1_D11_S47 -0.109673694226235 -0.00953016263644221 0.0932691092336623 -0.0397690482487263 -0.0521455978344099 -0.071384033725217 0.00330398792926569 0.00368168077124421 -0.0339198422581637 0.00652521318521569 0.0416416433693708 -0.00980915333021034 0.184833015521212 0.120427953427596 -0.0987976370465483 0.0781397660225136 -0.0262632671957308 0.0260938914871949 -0.101369395676712 -0.0258572139533962 0.100362169024981 -0.0819508021788855 0.0159091422263465 -0.0599538885271904 -0.0575547158253005 -0.0229745224752744 -0.168960209829823 -0.0513216037945604 0.051189373093915 -0.0444175032987584 -0.0878818597711716 -0.00620701866366042 0.130250430782931 0.111333286282059 -0.145319376285092 0.0069773109545483 0.0231835730026426 0.0434461500361071 -0.0332001909564816 -0.00880444818334413 -0.0428660434128703 0.154364278782153 0.0704073867669564 0.065244438282061 -0.0468813935256629 -0.0807855781221439 -0.0125377817795564 -0.0725933129416855 0.0284779349058565 0.0769120535036758 -0.0524580473178771 -0.105089890385701 0.142864054257109 0.00308328531161329 -0.144503051300412 0.192900613983135 0.0771640247735048 -0.129250521273481 -0.130738118733267 -0.0126520910571283 -0.161173767634641 0.0496022403030842 0.0788298841740541 0.141920288364946 0.0502550729257905 0.0805080581545739 -0.0130739036883371 0.289887277009505 0.277566357542318 0.233495041648382 -0.0265525703820716 0.0235416109682728 0.0224058315254874 -0.240920319219947 -0.213978007245073 -0.00957498993377832 0.0344520292918719 -0.0571657398432553 0.306840202068268 -0.0377283985013659 -0.124885250837902 -0.112599402165087 0.137279303754446 0.0256666905006336 0.127297921977129 0.0157443450433983 -0.0379777681888356 -0.0300242974709587 0.0214341399638441 -0.0163622758892652 -0.0434639831157752 -0.00800035868198858 0.0113736456078921 -0.00358921736508813 0.0124313366001164 0.00538299898861391 0.00600470593739267 0.0329294431692291 -0.000979362474732611 0.0302751815042047 -0.0142804967897688 -0.0032596404931351 -0.0461168148656664 -4.04874201034183e-05 0.049115369938754 -0.0466957042372709 0.0501957676535275 -0.00255630091361171 0.00745575890373596 0.0503520982378674 0.028148876831094 -0.00306653905329229 -0.0283234838690521 -0.0959850227803124
DPCh_plate1_D12_S48 -0.108575981864872 -0.0087269868943859 0.0921403196447647 -0.0535855952937478 -0.0826547459008614 -0.173937388920217 -0.0340490374115846 -0.00518774751077157 -0.0146381203478928 0.0358933724946779 -0.0175450445259333 0.010002455049946 0.0251773640353804 -0.00884984259813091 -0.0534006116096835 0.0529433622278919 0.0480505350224478 -0.0077515384640813 -0.0325854675199889 -0.0378148283746303 0.031989284747642 -0.106237256265267 -0.0413425261371345 -0.0162003096535984 0.0113378415844437 0.0280905759977493 -0.0361500334766511 0.0304477549888348 0.0968072602535503 -0.040193548162231 -0.117915846749864 -0.0490664419931685 0.175127825872723 -0.0358284323884094 -0.0266639427782038 -0.157262714661529 0.0103036141210188 -0.177069632654606 0.186375080374687 -0.194863555494721 0.0130596373796592 -0.101008991119436 -0.132599686549494 -0.126524017247541 0.088646178323793 0.143765299545056 0.120043327369007 0.171943931026007 -0.0498760162905944 0.0576697038515343 -0.0394336912506662 0.0700150613008877 0.12515515407274 -0.0847912390016595 0.129785904679917 -0.0185718096436279 0.228336263188867 0.104385287945455 0.0348907288581219 -0.147477792579632 0.132614899020329 -0.237416569893118 0.167452900270743 0.148519794320022 -0.0888771288769536 -0.119727032006583 -0.0577200897717193 0.0127366456421631 -0.00383567639375419 0.109006807891209 -0.0661435702820625 0.185577910302083 0.0739892967775352 0.233732796097165 -0.184482699454576 -0.0412398832578572 -0.0372574545321221 0.103784680325672 -0.00225905220388022 0.0311662537281706 -0.0105642565445429 0.0442344488735128 -0.133203608614409 0.0501356489914697 -0.149268379409041 0.0588607631678228 -0.0422802035116854 0.0638458155208322 -0.150490967800208 0.00489480876996908 0.00982856645764114 -0.0254773515217838 0.0657875120322048 -0.0189178599495457 0.14317785894806 -0.0269593209554517 -0.0102838655101922 0.030491256858253 -0.0699508979739694 0.0158341533687012 -0.117456121581268 0.0321056363310356 -0.0686459138454036 0.0162169733657858 -0.0814772626501989 0.054989218670181 0.0308900638759534 0.00589891060512334 0.000231286578378014 0.0305845462316302 0.0562168477927635 -0.0387958886110752 0.00698668626842513 -0.0963072448616279
DPCh_plate1_E01_S49 -0.102854852518133 0.0386815071324125 -0.273641719817867 0.0141766354498177 -0.0197926108932165 -0.166894154425687 -0.256662117521224 0.213764713167297 -0.434043496553674 -0.386376074587873 0.236012295857749 -0.141543568175207 -0.299822998748457 -0.145193372524131 -0.274975011936368 -0.0994986516245403 -0.0848847665715137 -0.195925901261857 -0.0614075141062338 -0.0587305851865629 -0.0623257944126485 -0.0529731011786828 -0.0344821869429606 0.0604927844481889 -0.0376238312259568 0.0483872758625846 0.0408542270925228 -0.0326884836721212 -0.0182796504279219 -0.0112944763021133 0.00726926489724529 0.0432659283954766 0.0812441779732497 -0.142309931829381 -0.0381880619458743 0.0232894512931986 0.0315978251151305 0.0707235485185206 0.0354836104129124 0.0963852395543724 0.0152570744205676 -0.0098256844049821 -0.0693708670182442 0.0118398961967149 0.00494766434552265 0.0126965851390475 0.00331373923142392 0.0209403032263043 0.0126124169915618 -0.0116733930108274 0.00204172848634455 -0.0886122356601022 -0.0153179908023792 0.00588270252852659 -0.0327822216595154 -0.0273606453015764 -0.0226357008053167 -0.0240456867944117 -0.0185759861048021 -0.00679378138333054 -0.00707573329599675 -0.0343916383972702 0.0144291443994484 -0.0321559848901462 -0.00582450371079496 -0.0232271869977923 0.0147778433921992 0.023321211535714 0.0158858914501608 0.0148795558787141 -0.0148536595598736 0.0293463210330771 -0.0105289441077457 -0.00544388775761386 -0.0148630590750351 -0.0135430401373775 -0.00490353539908638 -0.0416810429059737 0.0120785246915739 0.00183545556113844 -0.00930643263511972 0.00485450451104837 0.0112484710127859 -0.00406857464749952 0.018419990956124 0.0102362698650493 -0.0311334810037677 -0.000221951280608488 0.0252784431252188 -0.0308646381094807 0.0100567899072727 -0.00285234072714522 -0.0135229913159343 0.0252920451806984 -0.0153356870486225 0.0114138216084993 0.0390232797486788 -0.00489777875765997 0.00794141847363821 0.0202383177976469 0.0383985757448458 -0.0187682380155059 0.0189382148322916 -0.00704202360364113 0.0297695024580804 -0.0146595585922245 0.00096711278513838 -0.0055916979521617 0.0149573116658106 0.00271218413165503 -0.00511307043448641 0.0144479283577764 -0.00152081000215916 -0.0928064945884467
DPCh_plate1_E02_S50 -0.0989841716078029 0.00598143233098396 -0.101507031538367 -0.131096853893031 -0.0221856274438494 0.0517184758528397 -0.00337349584260706 -0.00532730209710785 0.0275689924034744 -0.130509357902576 -0.0438124815508365 -0.0323799291663644 0.0368260986967541 0.141327544738714 0.292004897210191 0.0744039877057894 0.158499770625315 -0.143544562114576 -0.120102430376281 0.286991227457079 0.0880369951776199 -0.0727535446422411 0.139817729564853 -0.137416255575719 -0.00882758574065045 0.0664814226402844 -0.189476069530862 0.0893444795165726 -0.162106111756065 -0.0734990804038105 0.0964947882947723 -0.00393037220533172 -0.320715205279848 -0.526077869162837 -0.0990982483220681 0.0316656799498565 0.0338697193088959 -0.0367228471106527 0.0731093254385543 0.0405521847379434 -0.0755286853065915 -0.0740850012356684 -0.0229266055007091 0.0776604666381651 0.00424105543077093 0.0319753539415499 0.100497511702594 0.101659301434541 0.072791483668475 0.00220460396657681 0.00175304323647232 0.0397236253192511 -0.0216935412818808 0.0882986185700352 0.0604670310405436 -0.108072961913769 -0.0366170658593601 -0.0411916962996181 -0.0251125283862754 0.0336919376287605 -0.0160320625952054 0.085800001031532 -0.015103895153607 0.0605817282421222 0.00981819129997515 0.0207811051340578 0.0442512908285485 0.0643937967672554 0.0622345530494933 0.0304071234825475 -0.0700980719070091 0.00815619805930053 0.0105319326221017 0.00110340616413317 -0.0831515891819266 -0.0163250992968817 -0.0387419464200792 -0.00993360602254822 0.0480758206204429 -0.0162638771935481 0.000829586892561876 -0.0280441767138548 -0.0237763292519346 -0.006741321052484 -0.0078392774996511 0.0433176286153502 -0.0453244985392786 -0.0116436687315731 -0.050705598060364 0.0841098470299333 -0.025326342862093 -0.0226563016727357 -0.0100322686048851 0.0201167564852381 0.00662780977219253 0.00538524416734815 -0.0139004976344926 -0.0092166323211112 -0.0121200859692899 -0.00673235902824469 -0.00462467104888267 -0.00474916028351092 0.0223097624446718 0.00192150034131589 -0.0458292894684787 0.0051408347157284 0.00875954507051501 -0.0192428921526737 -0.00588159928295053 -0.00758057683634165 -0.00684631556802561 0.00119772377230261 0.00955595641046567 -0.0929208415019129
DPCh_plate1_E05_S53 0.0803896423146626 0.0732969238596325 -0.0192420052917177 -0.00866345724928476 0.0616668286835752 -0.0365548988530799 -0.0586894366295701 0.0407931230060486 -0.0151991486877545 0.00513760059921104 -0.00645462541041399 0.0252030515485542 0.00882737503379113 -0.0708544130007663 0.00588153254192673 0.240176246525893 -0.175749567268905 -0.169034120476967 0.154364221408418 0.117051076126047 0.122140062232145 0.142980318812335 0.0589044203095672 -0.197073391551237 -0.00549168833262707 -0.0241413057609997 0.0757433568588204 0.160279056516275 0.147029755928557 0.197800263082201 -0.319984354896149 0.0456630719401902 -0.157543857725981 0.0459044158040096 0.128903543163738 -0.160799387169442 -0.0952041834206488 0.0842534849953496 0.216802049964312 0.107978642991316 -0.00471473050830589 0.366649101322736 0.0406389967280109 -0.190208342734277 0.197663600532273 -0.0557606854565547 -0.0651580316653825 0.211501021772624 0.0812719995627856 0.146621351106259 0.0934488298454902 0.00583042545929162 -0.094695380302206 0.0478121209482717 0.0515403589819978 0.0516101852065028 -0.0316365285993418 -0.0359874289316317 0.0215202120393093 -0.00766651678863862 0.00944213529347576 0.0246140492090922 0.0029840891527043 -0.0129189098884025 -0.0223017464721438 -0.0698620522210684 0.0248024392346314 -0.00417495437356714 0.0935043885235462 -0.0391673737744053 0.0185847031264259 -0.0984800582342647 -0.0519870649733886 -0.0247976474174713 -0.0564666353100188 -0.054652286538082 -0.0209129288619138 0.0367101768809664 -0.0104685878127562 0.0329547121412443 0.0180204193997354 0.0324249014630546 -0.0126384205571593 -0.0208172796414995 0.0136434637304652 0.0482635202266561 0.0107948126538469 0.0181020623729111 0.054370109669546 0.0636483400648934 0.00891657615920456 0.0093933765470613 -0.0546850847006663 -0.0319718015401745 -0.0268251135860169 0.00864458717266071 -0.00654479416017829 0.0412780418555472 0.0609758517348687 -0.0171395989401339 0.0141204384343015 0.031906247595397 0.0111728550916632 0.0281276112339246 -0.00226745792530444 -0.0312779952207734 0.0101536501936627 0.0501721174203827 -0.0305983939677848 0.00375617172934613 0.00432936460150633 -6.42278760151536e-05 0.0161039132931313 -0.0925466647233893
